{"learner":{"attributes":{"best_iteration":"99","best_ntree_limit":"100"},"feature_names":[],"feature_types":[],"gradient_booster":{"model":{"gbtree_model_param":{"num_parallel_tree":"1","num_trees":"100","size_leaf_vector":"0"},"tree_info":[0,0,0,0,0,0,0,0,0,0,0,0,0,0,0,0,0,0,0,0,0,0,0,0,0,0,0,0,0,0,0,0,0,0,0,0,0,0,0,0,0,0,0,0,0,0,0,0,0,0,0,0,0,0,0,0,0,0,0,0,0,0,0,0,0,0,0,0,0,0,0,0,0,0,0,0,0,0,0,0,0,0,0,0,0,0,0,0,0,0,0,0,0,0,0,0,0,0,0,0],"trees":[{"base_weights":[-1.6766912E0,-1.3148342E0,-1.7389826E0,-1.0484519E0,-1.40835E0,-1.6568524E0,-1.832121E0,-1.1895583E0,-8.456684E-1,-1.342982E0,-1.6663914E0,-1.6136069E0,-1.822325E0,-1.873249E0,-1.7820076E0,-5.6161083E-2,-7.562724E-2,-4.372066E-2,1.9512195E-2,-7.19402E-2,-5.94195E-2,-8.018182E-2,-8.979329E-2,-8.560398E-2,-7.665792E-2,-9.3053184E-2,-8.789267E-2,-9.491077E-2,-9.10997E-2,-9.091958E-2,-8.447134E-2],"categories":[],"categories_nodes":[],"categories_segments":[],"categories_sizes":[],"default_left":[0,0,0,1,0,0,1,0,1,1,0,1,1,1,1,0,0,0,0,0,0,0,0,0,0,0,0,0,0,0,0],"id":0,"left_children":[1,3,5,7,9,11,13,15,17,19,21,23,25,27,29,-1,-1,-1,-1,-1,-1,-1,-1,-1,-1,-1,-1,-1,-1,-1,-1],"loss_changes":[1.2443281E3,2.0096191E2,3.5789062E2,5.95271E1,9.91709E1,1.7654688E2,4.2203125E1,2.4976318E1,3.1302124E1,6.942285E1,6.9594727E0,1.5497656E2,9.6875E0,1.2046875E1,3.0552734E1,0E0,0E0,0E0,0E0,0E0,0E0,0E0,0E0,0E0,0E0,0E0,0E0,0E0,0E0,0E0,0E0],"parents":[2147483647,0,0,1,1,2,2,3,3,4,4,5,5,6,6,7,7,8,8,9,9,10,10,11,11,12,12,13,13,14,14],"right_children":[2,4,6,8,10,12,14,16,18,20,22,24,26,28,30,-1,-1,-1,-1,-1,-1,-1,-1,-1,-1,-1,-1,-1,-1,-1,-1],"split_conditions":[3.1547216E-1,1.5100753E-1,5.3707E-1,5.090069E-1,5.086139E-1,5.062609E-1,-2.47E3,5.2406085E-1,9.9945E3,5.0535583E-1,4.83642E3,-2.19E3,4.6296295E-2,5.64345E2,7.3529415E-2,-5.6161083E-2,-7.562724E-2,-4.372066E-2,1.9512195E-2,-7.19402E-2,-5.94195E-2,-8.018182E-2,-8.979329E-2,-8.560398E-2,-7.665792E-2,-9.3053184E-2,-8.789267E-2,-9.491077E-2,-9.10997E-2,-9.091958E-2,-8.447134E-2],"split_indices":[40,40,40,63,38,38,19,38,56,63,133,19,127,123,127,0,0,0,0,0,0,0,0,0,0,0,0,0,0,0,0],"split_type":[0,0,0,0,0,0,0,0,0,0,0,0,0,0,0,0,0,0,0,0,0,0,0,0,0,0,0,0,0,0,0],"sum_hessian":[5.530525E4,8.1255E3,4.717975E4,2.1145E3,6.011E3,2.50815E4,2.209825E4,1.244E3,8.705E2,4.801E3,1.21E3,1.989325E4,5.18825E3,1.211725E4,9.981E3,1.03575E3,2.0825E2,8.51E2,1.95E1,2.95875E3,1.84225E3,8.24E2,3.86E2,8.9355E3,1.095775E4,3.2235E3,1.96475E3,8.124E3,3.99325E3,7.15175E3,2.82925E3],"tree_param":{"num_deleted":"0","num_feature":"170","num_nodes":"31","size_leaf_vector":"0"}},{"base_weights":[-1.5976326E0,-1.3114227E0,-1.66737E0,-8.0064607E-1,-1.4031497E0,-1.391656E0,-1.7124379E0,-3.4881055E-1,-9.061322E-1,-1.2853146E0,-1.5807492E0,-1.2991714E0,-1.5635232E0,-1.653144E0,-1.7764076E0,-1.3223319E-2,-5.4338712E-2,-1.2273356E-2,-4.714273E-2,-5.1690694E-2,-6.8860464E-2,-8.346873E-2,-7.373363E-2,-5.1845144E-2,-6.8830416E-2,-5.5582173E-2,-7.9726994E-2,-7.913219E-2,-8.657058E-2,-8.641099E-2,-9.027379E-2],"categories":[],"categories_nodes":[],"categories_segments":[],"categories_sizes":[],"default_left":[0,0,0,0,0,0,0,0,0,0,1,0,0,0,0,0,0,0,0,0,0,0,0,0,0,0,0,0,0,0,0],"id":1,"left_children":[1,3,5,7,9,11,13,15,17,19,21,23,25,27,29,-1,-1,-1,-1,-1,-1,-1,-1,-1,-1,-1,-1,-1,-1,-1,-1],"loss_changes":[1.1026094E3,5.071836E2,5.506094E2,7.85199E1,1.9042188E2,9.743652E1,1.4214062E2,1.9300018E1,3.228711E1,1.2646582E2,3.1979492E1,8.13208E1,2.8844727E1,1.06859375E2,2.2632812E1,0E0,0E0,0E0,0E0,0E0,0E0,0E0,0E0,0E0,0E0,0E0,0E0,0E0,0E0,0E0,0E0],"parents":[2147483647,0,0,1,1,2,2,3,3,4,4,5,5,6,6,7,7,8,8,9,9,10,10,11,11,12,12,13,13,14,14],"right_children":[2,4,6,8,10,12,14,16,18,20,22,24,26,28,30,-1,-1,-1,-1,-1,-1,-1,-1,-1,-1,-1,-1,-1,-1,-1,-1],"split_conditions":[3.36152E-1,2.881296E-1,3.1703177E-1,7.747081E-2,5.388627E-1,6.367948E-1,5.388627E-1,5.40731E-1,9.392405E4,1.3641931E-1,-2.445E3,1.4375806E-1,2.4398397E-1,6.116055E-1,5.77873E-1,-1.3223319E-2,-5.4338712E-2,-1.2273356E-2,-4.714273E-2,-5.1690694E-2,-6.8860464E-2,-8.346873E-2,-7.373363E-2,-5.1845144E-2,-6.8830416E-2,-5.5582173E-2,-7.9726994E-2,-7.913219E-2,-8.657058E-2,-8.641099E-2,-9.027379E-2],"split_indices":[39,40,40,39,40,39,40,38,158,39,19,40,38,39,39,0,0,0,0,0,0,0,0,0,0,0,0,0,0,0,0],"split_type":[0,0,0,0,0,0,0,0,0,0,0,0,0,0,0,0,0,0,0,0,0,0,0,0,0,0,0,0,0,0,0],"sum_hessian":[5.5350855E4,1.0848229E4,4.450263E4,1.6530488E3,9.19518E3,6.256839E3,3.824579E4,3.1369336E2,1.3393555E3,5.532597E3,3.662582E3,4.0734202E3,2.183419E3,1.9862209E4,1.838358E4,2.8273685E2,3.0956495E1,7.093114E1,1.2684243E3,1.4838359E3,4.0487612E3,1.9874005E3,1.6751815E3,9.318285E2,3.1415918E3,1.426087E2,2.0408102E3,1.04608E4,9.401409E3,6.9397163E3,1.1443864E4],"tree_param":{"num_deleted":"0","num_feature":"170","num_nodes":"31","size_leaf_vector":"0"}},{"base_weights":[-1.5244946E0,-1.1921043E0,-1.5817695E0,-8.3575743E-1,-1.3355033E0,-1.3804259E0,-1.6445817E0,-3.2308152E-1,-9.149031E-1,-1.1152161E0,-1.3992294E0,-1.2704353E0,-1.5387149E0,-1.5895445E0,-1.7036622E0,-3.736497E-2,-9.778592E-3,-3.3784475E-2,-5.120173E-2,-4.875065E-2,-6.78134E-2,-4.695642E-2,-7.1114644E-2,-5.072176E-2,-6.769416E-2,-6.704458E-2,-7.8915E-2,-7.6020524E-2,-8.2514666E-2,-8.052879E-2,-8.574593E-2],"categories":[],"categories_nodes":[],"categories_segments":[],"categories_sizes":[],"default_left":[0,0,0,0,0,0,0,0,0,0,0,0,0,0,0,0,0,0,0,0,0,0,0,0,0,0,0,0,0,0,0],"id":2,"left_children":[1,3,5,7,9,11,13,15,17,19,21,23,25,27,29,-1,-1,-1,-1,-1,-1,-1,-1,-1,-1,-1,-1,-1,-1,-1,-1],"loss_changes":[1.0456406E3,4.1237207E2,5.9128906E2,9.402588E1,7.9413086E1,1.9245508E2,1.1358594E2,1.675291E1,5.186255E1,4.258496E1,4.6097656E1,1.3949121E2,3.369629E1,7.5328125E1,1.5296875E1,0E0,0E0,0E0,0E0,0E0,0E0,0E0,0E0,0E0,0E0,0E0,0E0,0E0,0E0,0E0,0E0],"parents":[2147483647,0,0,1,1,2,2,3,3,4,4,5,5,6,6,7,7,8,8,9,9,10,10,11,11,12,12,13,13,14,14],"right_children":[2,4,6,8,10,12,14,16,18,20,22,24,26,28,30,-1,-1,-1,-1,-1,-1,-1,-1,-1,-1,-1,-1,-1,-1,-1,-1],"split_conditions":[3.1547216E-1,3.8222963E-1,3.9055595E-1,6.792789E-2,1.4375806E-1,5.424451E-1,5.388627E-1,-2.067E3,1.6048893E-1,6.338309E-1,1.8319924E-1,1.5357058E-1,1.3622364E-1,6.0359746E-1,4.0338403E-1,-3.736497E-2,-9.778592E-3,-3.3784475E-2,-5.120173E-2,-4.875065E-2,-6.78134E-2,-4.695642E-2,-7.1114644E-2,-5.072176E-2,-6.769416E-2,-6.704458E-2,-7.8915E-2,-7.6020524E-2,-8.2514666E-2,-8.052879E-2,-8.574593E-2],"split_indices":[40,39,39,39,40,40,40,19,40,39,38,39,39,39,38,0,0,0,0,0,0,0,0,0,0,0,0,0,0,0,0],"split_type":[0,0,0,0,0,0,0,0,0,0,0,0,0,0,0,0,0,0,0,0,0,0,0,0,0,0,0,0,0,0,0],"sum_hessian":[5.5023156E4,8.090762E3,4.6932395E4,2.323555E3,5.7672075E3,1.1165276E4,3.5767117E4,3.1141406E2,2.0121407E3,1.2981792E3,4.4690283E3,6.593009E3,4.572267E3,1.8531615E4,1.7235504E4,7.084751E1,2.4056656E2,6.3262775E2,1.379513E3,8.23975E2,4.742042E2,2.1531654E2,4.253712E3,1.6240181E3,4.9689907E3,7.681855E2,3.8040818E3,8.679771E3,9.851843E3,1.8749073E3,1.5360597E4],"tree_param":{"num_deleted":"0","num_feature":"170","num_nodes":"31","size_leaf_vector":"0"}},{"base_weights":[-1.4599775E0,-1.2431438E0,-1.541659E0,-8.793043E-1,-1.3390236E0,-1.2323096E0,-1.5748267E0,-6.428482E-1,-1.0234228E0,-1.0933071E0,-1.4013696E0,-1.1310862E0,-1.3839276E0,-1.5216745E0,-1.6367233E0,-1.8100277E-2,-3.9778247E-2,-3.3182096E-2,-5.4046895E-2,-6.549883E-2,-4.6726402E-2,-7.564238E-2,-6.539735E-2,-4.846705E-2,-6.128723E-2,-4.516428E-2,-7.052409E-2,-5.99764E-2,-7.6776266E-2,-8.2807586E-2,-7.913571E-2],"categories":[],"categories_nodes":[],"categories_segments":[],"categories_sizes":[],"default_left":[0,0,0,0,0,0,0,0,0,1,1,0,0,0,1,0,0,0,0,0,0,0,0,0,0,0,0,0,0,0,0],"id":3,"left_children":[1,3,5,7,9,11,13,15,17,19,21,23,25,27,29,-1,-1,-1,-1,-1,-1,-1,-1,-1,-1,-1,-1,-1,-1,-1,-1],"loss_changes":[9.649844E2,5.201094E2,4.0489062E2,1.05645996E2,1.7961328E2,5.743164E1,1.1530469E2,5.0492462E1,3.935376E1,8.125952E1,9.621094E1,3.4188965E1,1.8310791E1,8.417969E1,1.47265625E1,0E0,0E0,0E0,0E0,0E0,0E0,0E0,0E0,0E0,0E0,0E0,0E0,0E0,0E0,0E0,0E0],"parents":[2147483647,0,0,1,1,2,2,3,3,4,4,5,5,6,6,7,7,8,8,9,9,10,10,11,11,12,12,13,13,14,14],"right_children":[2,4,6,8,10,12,14,16,18,20,22,24,26,28,30,-1,-1,-1,-1,-1,-1,-1,-1,-1,-1,-1,-1,-1,-1,-1,-1],"split_conditions":[4.169173E-1,3.4741822E-1,2.636468E-1,2.0592244E-1,1.5357058E-1,6.337142E-1,5.388627E-1,1.8195911E-1,1.1686727E-1,-2.437E3,-2.566E3,1.5286623E-1,2.1012615E-1,2.119925E-1,1.8050143E2,-1.8100277E-2,-3.9778247E-2,-3.3182096E-2,-5.4046895E-2,-6.549883E-2,-4.6726402E-2,-7.564238E-2,-6.539735E-2,-4.846705E-2,-6.128723E-2,-4.516428E-2,-7.052409E-2,-5.99764E-2,-7.6776266E-2,-8.2807586E-2,-7.913571E-2],"split_indices":[39,40,40,39,39,39,40,40,40,19,19,40,38,38,121,0,0,0,0,0,0,0,0,0,0,0,0,0,0,0,0],"split_type":[0,0,0,0,0,0,0,0,0,0,0,0,0,0,0,0,0,0,0,0,0,0,0,0,0,0,0,0,0,0,0],"sum_hessian":[5.459127E4,1.4942023E4,3.9649246E4,3.1184556E3,1.1823567E4,3.8431396E3,3.5806105E4,1.1829851E3,1.9354705E3,2.3966157E3,9.426952E3,2.3096375E3,1.5335021E3,1.9277525E4,1.6528582E4,4.1788132E2,7.6510376E2,2.6848996E2,1.6669805E3,1.010475E3,1.3861409E3,4.2912056E3,5.1357466E3,8.568156E2,1.4528219E3,8.211951E1,1.4513826E3,7.982886E2,1.8479236E4,1.2134025E4,4.394556E3],"tree_param":{"num_deleted":"0","num_feature":"170","num_nodes":"31","size_leaf_vector":"0"}},{"base_weights":[-1.4008434E0,-1.0935699E0,-1.4543214E0,-1.0267276E0,-1.371436E0,-1.3805424E0,-1.5381589E0,-1.1357015E0,-8.559103E-1,-9.6287405E-1,-1.3985457E0,-1.3393203E0,-1.5384687E0,-1.5608544E0,-1.4583747E0,-5.0047524E-2,-6.110702E-2,-2.9645516E-2,-4.7954485E-2,4.75762E-3,-5.6190707E-2,-5.4048087E-2,-7.1268365E-2,-7.177693E-2,-6.3034646E-2,-7.814135E-2,-7.261116E-2,-7.9701275E-2,-7.5993836E-2,-7.624474E-2,-6.954905E-2],"categories":[],"categories_nodes":[],"categories_segments":[],"categories_sizes":[],"default_left":[0,0,0,1,0,0,1,0,0,1,0,1,1,1,0,0,0,0,0,0,0,0,0,0,0,0,0,0,0,0,0],"id":4,"left_children":[1,3,5,7,9,11,13,15,17,19,21,23,25,27,29,-1,-1,-1,-1,-1,-1,-1,-1,-1,-1,-1,-1,-1,-1,-1,-1],"loss_changes":[8.864297E2,1.4745801E2,2.825625E2,1.1936914E2,1.5834717E1,1.5738281E2,3.671875E1,4.471338E1,6.786902E1,1.7089722E1,1.0831299E1,1.451875E2,8.366211E0,2.0351562E1,1.9328125E1,0E0,0E0,0E0,0E0,0E0,0E0,0E0,0E0,0E0,0E0,0E0,0E0,0E0,0E0,0E0,0E0],"parents":[2147483647,0,0,1,1,2,2,3,3,4,4,5,5,6,6,7,7,8,8,9,9,10,10,11,11,12,12,13,13,14,14],"right_children":[2,4,6,8,10,12,14,16,18,20,22,24,26,28,30,-1,-1,-1,-1,-1,-1,-1,-1,-1,-1,-1,-1,-1,-1,-1,-1],"split_conditions":[3.1547216E-1,5.084283E-1,5.3707E-1,5.083739E-1,7.90597E-2,5.06389E-1,3.7332974E2,1.9070596E-1,1.5008518E-1,2.25E1,4.6786472E-1,-2.187E3,-5.417808E0,-2.438E3,-1.122E3,-5.0047524E-2,-6.110702E-2,-2.9645516E-2,-4.7954485E-2,4.75762E-3,-5.6190707E-2,-5.4048087E-2,-7.1268365E-2,-7.177693E-2,-6.3034646E-2,-7.814135E-2,-7.261116E-2,-7.9701275E-2,-7.5993836E-2,-7.624474E-2,-6.954905E-2],"split_indices":[40,38,40,63,40,38,121,40,40,137,114,19,124,19,45,0,0,0,0,0,0,0,0,0,0,0,0,0,0,0,0],"split_type":[0,0,0,0,0,0,0,0,0,0,0,0,0,0,0,0,0,0,0,0,0,0,0,0,0,0,0,0,0,0,0],"sum_hessian":[5.4039824E4,8.014074E3,4.602575E4,6.463852E3,1.5502219E3,2.4490754E4,2.1534998E4,3.942843E3,2.521009E3,9.873509E1,1.4514868E3,1.9428879E4,5.061874E3,1.6751316E4,4.783682E3,1.5457408E3,2.397102E3,7.122529E2,1.8087561E3,1.3089953E1,8.5645134E1,1.16254776E2,1.335232E3,8.729331E3,1.0699549E4,3.9337517E3,1.1281221E3,9.236532E3,7.5147827E3,2.3965593E3,2.3871228E3],"tree_param":{"num_deleted":"0","num_feature":"170","num_nodes":"31","size_leaf_vector":"0"}},{"base_weights":[-1.3477241E0,-1.0110606E0,-1.3977302E0,-5.5206454E-1,-1.1040902E0,-1.1407092E0,-1.4415462E0,-1.6089623E-1,-6.491036E-1,-1.2793317E0,-9.6291804E-1,-1.0579942E0,-1.3218522E0,-1.3585098E0,-1.4929273E0,-4.2553395E-2,-3.6746997E-3,3.4513522E-3,-3.4599613E-2,-6.4349964E-2,-1.1080719E-3,-3.209591E-2,-5.1824976E-2,-4.26708E-2,-5.7282396E-2,-4.1997936E-2,-6.7320645E-2,-6.4090535E-2,-7.2835565E-2,-6.473802E-2,-7.520825E-2],"categories":[],"categories_nodes":[],"categories_segments":[],"categories_sizes":[],"default_left":[0,0,0,0,1,0,0,0,0,1,0,0,0,0,0,0,0,0,0,0,0,0,0,0,0,0,0,0,0,0,0],"id":5,"left_children":[1,3,5,7,9,11,13,15,17,19,21,23,25,27,29,-1,-1,-1,-1,-1,-1,-1,-1,-1,-1,-1,-1,-1,-1,-1,-1],"loss_changes":[8.9553906E2,2.9376318E2,5.207422E2,4.4071564E1,1.4055225E2,9.9899414E1,1.6703906E2,1.3971633E1,2.8757446E1,2.459082E1,7.440137E1,8.234131E1,2.390625E1,1.12302734E2,5.2539062E1,0E0,0E0,0E0,0E0,0E0,0E0,0E0,0E0,0E0,0E0,0E0,0E0,0E0,0E0,0E0,0E0],"parents":[2147483647,0,0,1,1,2,2,3,3,4,4,5,5,6,6,7,7,8,8,9,9,10,10,11,11,12,12,13,13,14,14],"right_children":[2,4,6,8,10,12,14,16,18,20,22,24,26,28,30,-1,-1,-1,-1,-1,-1,-1,-1,-1,-1,-1,-1,-1,-1,-1,-1],"split_conditions":[2.5920674E-1,2.9109737E-1,3.1859553E-1,5.6025084E-2,-2.436E3,6.3746214E-1,5.51362E-1,1.71E5,9.3141E4,2.2307692E0,6.699381E-2,1.6540746E-1,2.099091E-1,5.424451E-1,2.789031E-1,-4.2553395E-2,-3.6746997E-3,3.4513522E-3,-3.4599613E-2,-6.4349964E-2,-1.1080719E-3,-3.209591E-2,-5.1824976E-2,-4.26708E-2,-5.7282396E-2,-4.1997936E-2,-6.7320645E-2,-6.4090535E-2,-7.2835565E-2,-6.473802E-2,-7.520825E-2],"split_indices":[39,40,40,39,19,39,39,16,158,146,39,40,38,40,38,0,0,0,0,0,0,0,0,0,0,0,0,0,0,0,0],"split_type":[0,0,0,0,0,0,0,0,0,0,0,0,0,0,0,0,0,0,0,0,0,0,0,0,0,0,0,0,0,0,0],"sum_hessian":[5.3278074E4,6.892944E3,4.6385133E4,1.1627944E3,5.7301494E3,6.7597715E3,3.962536E4,2.3165233E2,9.311421E2,2.5529841E3,3.1771653E3,4.645396E3,2.1143755E3,1.5157287E4,2.4468072E4,2.5056477E1,2.0659586E2,5.2441925E1,8.787002E2,2.5374841E3,1.5500027E1,5.942902E2,2.5828752E3,1.3965865E3,3.2488096E3,1.0424452E2,2.0101309E3,8.518258E3,6.639029E3,1.3193098E3,2.3148764E4],"tree_param":{"num_deleted":"0","num_feature":"170","num_nodes":"31","size_leaf_vector":"0"}},{"base_weights":[-1.2993191E0,-9.4740885E-1,-1.3439825E0,-1.0392479E0,-7.4415207E-1,-1.2702367E0,-1.4352258E0,-9.776791E-1,-1.2829236E0,-1.0306114E0,-6.500298E-1,-1.2280749E0,-1.43534E0,-1.4636374E0,-1.3647827E0,-3.9993275E-2,-5.2872974E-2,-6.793789E-2,-5.4427486E-2,-5.30581E-2,-6.523239E-3,-3.6431227E-2,-1.6528392E-2,-4.3959867E-2,-6.2326677E-2,-7.371641E-2,-6.865277E-2,-6.584585E-2,-7.363287E-2,-7.121724E-2,-6.499494E-2],"categories":[],"categories_nodes":[],"categories_segments":[],"categories_sizes":[],"default_left":[0,1,0,0,0,0,1,0,1,0,0,0,1,0,0,0,0,0,0,0,0,0,0,0,0,0,0,0,0,0,0],"id":6,"left_children":[1,3,5,7,9,11,13,15,17,19,21,23,25,27,29,-1,-1,-1,-1,-1,-1,-1,-1,-1,-1,-1,-1,-1,-1,-1,-1],"loss_changes":[8.254297E2,1.09868164E2,3.1222656E2,5.995752E1,4.9160583E1,1.7797266E2,3.973828E1,4.54187E1,1.0604248E1,1.2384094E1,3.475464E1,1.3139844E2,1.071582E1,1.7708984E1,2.1367188E1,0E0,0E0,0E0,0E0,0E0,0E0,0E0,0E0,0E0,0E0,0E0,0E0,0E0,0E0,0E0,0E0],"parents":[2147483647,0,0,1,1,2,2,3,3,4,4,5,5,6,6,7,7,8,8,9,9,10,10,11,11,12,12,13,13,14,14],"right_children":[2,4,6,8,10,12,14,16,18,20,22,24,26,28,30,-1,-1,-1,-1,-1,-1,-1,-1,-1,-1,-1,-1,-1,-1,-1,-1],"split_conditions":[2.707074E-1,5.7972866E-1,5.3707E-1,5.0733244E-1,2E0,5.097604E-1,7.017544E-2,1.4199154E-1,1.92E1,8E0,-6.1E1,1.9252764E-1,4.6511628E-2,3.0053627E-1,-1.06E3,-3.9993275E-2,-5.2872974E-2,-6.793789E-2,-5.4427486E-2,-5.30581E-2,-6.523239E-3,-3.6431227E-2,-1.6528392E-2,-4.3959867E-2,-6.2326677E-2,-7.371641E-2,-6.865277E-2,-6.584585E-2,-7.363287E-2,-7.121724E-2,-6.499494E-2],"split_indices":[40,63,40,38,6,38,127,40,112,59,55,38,127,38,45,0,0,0,0,0,0,0,0,0,0,0,0,0,0,0,0],"split_type":[0,0,0,0,0,0,0,0,0,0,0,0,0,0,0,0,0,0,0,0,0,0,0,0,0,0,0,0,0,0,0],"sum_hessian":[5.25973E4,5.9261714E3,4.667113E4,4.07901E3,1.8471615E3,2.5818637E4,2.0852492E4,3.2602625E3,8.187477E2,4.5436392E2,1.3927976E3,2.057333E4,5.2453057E3,1.4845242E4,6.00725E3,1.0131628E3,2.2470996E3,5.846561E2,2.3409155E2,4.3927618E2,1.5087721E1,1.1167672E3,2.7603043E2,1.0362534E3,1.9537076E4,3.2120186E3,2.0332874E3,8.683143E2,1.3976928E4,3.1211494E3,2.8861006E3],"tree_param":{"num_deleted":"0","num_feature":"170","num_nodes":"31","size_leaf_vector":"0"}},{"base_weights":[-1.2535187E0,-9.5918334E-1,-1.3062547E0,-9.009635E-1,-1.2486628E0,-1.2339733E0,-1.3887163E0,-6.876448E-1,-9.756223E-1,-1.2569182E0,-3.6985463E-1,-1.1945001E0,-1.387963E0,-1.4232193E0,-1.3318136E0,-4.35789E-2,-2.8366888E-2,-3.1222105E-2,-5.0318222E-2,-6.311989E-2,-8.796077E-3,-6.104652E-2,1.5159187E-2,-6.4418085E-2,-5.587619E-2,-7.0712686E-2,-6.47507E-2,-7.234714E-2,-6.820666E-2,-6.494942E-2,-7.220354E-2],"categories":[],"categories_nodes":[],"categories_segments":[],"categories_sizes":[],"default_left":[0,0,0,0,1,0,1,1,0,1,0,1,1,1,0,0,0,0,0,0,0,0,0,0,0,0,0,0,0,0,0],"id":7,"left_children":[1,3,5,7,9,11,13,15,17,19,21,23,25,27,29,-1,-1,-1,-1,-1,-1,-1,-1,-1,-1,-1,-1,-1,-1,-1,-1],"loss_changes":[8.0358594E2,1.3171875E2,2.603672E2,1.0390088E2,9.091797E0,1.4082422E2,3.8414062E1,3.7248962E1,5.1855957E1,7.505127E0,8.2037325E0,1.3341211E2,9.84082E0,1.5921875E1,2.6738281E1,0E0,0E0,0E0,0E0,0E0,0E0,0E0,0E0,0E0,0E0,0E0,0E0,0E0,0E0,0E0,0E0],"parents":[2147483647,0,0,1,1,2,2,3,3,4,4,5,5,6,6,7,7,8,8,9,9,10,10,11,11,12,12,13,13,14,14],"right_children":[2,4,6,8,10,12,14,16,18,20,22,24,26,28,30,-1,-1,-1,-1,-1,-1,-1,-1,-1,-1,-1,-1,-1,-1,-1,-1],"split_conditions":[3.1703177E-1,5.453834E-1,5.3707E-1,1.4916746E-1,1.2E1,5.076219E-1,-1.928E3,-8.339286E2,2.0160663E-1,1.50615E4,8E0,-2.181E3,-5.423077E0,1.4540654E2,5.076219E-1,-4.35789E-2,-2.8366888E-2,-3.1222105E-2,-5.0318222E-2,-6.311989E-2,-8.796077E-3,-6.104652E-2,1.5159187E-2,-6.4418085E-2,-5.587619E-2,-7.0712686E-2,-6.47507E-2,-7.234714E-2,-6.820666E-2,-6.494942E-2,-7.220354E-2],"split_indices":[40,38,40,40,118,38,19,53,38,56,119,19,124,121,38,0,0,0,0,0,0,0,0,0,0,0,0,0,0,0,0],"split_type":[0,0,0,0,0,0,0,0,0,0,0,0,0,0,0,0,0,0,0,0,0,0,0,0,0,0,0,0,0,0,0],"sum_hessian":[5.1849953E4,7.8812954E3,4.3968656E4,6.5650513E3,1.3162441E3,2.3439107E4,2.0529549E4,1.7046514E3,4.8604E3,1.3035684E3,1.267576E1,1.8663693E4,4.775413E3,1.2765303E4,7.7642456E3,6.716083E2,1.0330431E3,3.9294537E2,4.467454E3,1.296827E3,6.7414017E0,5.2380466E0,7.4377136E0,8.402423E3,1.0261271E4,3.7114204E3,1.0639926E3,9.091516E3,3.6737874E3,6.017303E3,1.7469424E3],"tree_param":{"num_deleted":"0","num_feature":"170","num_nodes":"31","size_leaf_vector":"0"}},{"base_weights":[-1.2115933E0,-9.5832664E-1,-1.2811465E0,-5.878363E-1,-1.0515281E0,-9.8362225E-1,-1.3146733E0,-1.3708794E-1,-6.634629E-1,-1.1962317E0,-9.3069583E-1,-8.8967896E-1,-1.1519812E0,-1.2602816E0,-1.379864E0,-5.6141235E-2,-4.2591393E-3,-1.9275786E-2,-3.7752513E-2,-5.5735853E-2,-6.5077E-2,-3.062906E-2,-5.0131626E-2,-5.2404594E-2,-4.0083032E-2,-6.0794145E-2,-4.6132218E-2,-5.955555E-2,-6.6718824E-2,-6.68629E-2,-7.05906E-2],"categories":[],"categories_nodes":[],"categories_segments":[],"categories_sizes":[],"default_left":[0,0,0,0,1,0,0,0,0,0,0,1,1,0,0,0,0,0,0,0,0,0,0,0,0,0,0,0,0,0,0],"id":8,"left_children":[1,3,5,7,9,11,13,15,17,19,21,23,25,27,29,-1,-1,-1,-1,-1,-1,-1,-1,-1,-1,-1,-1,-1,-1,-1,-1],"loss_changes":[8.9689844E2,3.7883594E2,3.976797E2,7.5280396E1,1.5238574E2,6.3104248E1,1.2571484E2,1.6222399E1,4.7901062E1,3.28125E1,1.0896875E2,3.5508057E1,2.0110107E1,9.889258E1,2.0351562E1,0E0,0E0,0E0,0E0,0E0,0E0,0E0,0E0,0E0,0E0,0E0,0E0,0E0,0E0,0E0,0E0],"parents":[2147483647,0,0,1,1,2,2,3,3,4,4,5,5,6,6,7,7,8,8,9,9,10,10,11,11,12,12,13,13,14,14],"right_children":[2,4,6,8,10,12,14,16,18,20,22,24,26,28,30,-1,-1,-1,-1,-1,-1,-1,-1,-1,-1,-1,-1,-1,-1,-1,-1],"split_conditions":[3.5422474E-1,3.3285058E-1,2.636468E-1,6.525597E-2,-2.461E3,6.342267E-1,5.388627E-1,2.777778E-1,1.4825438E-1,5.726825E-1,1.0325599E-1,-2.412E3,6.6112506E-1,6.104309E-1,5.9902084E-1,-5.6141235E-2,-4.2591393E-3,-1.9275786E-2,-3.7752513E-2,-5.5735853E-2,-6.5077E-2,-3.062906E-2,-5.0131626E-2,-5.2404594E-2,-4.0083032E-2,-6.0794145E-2,-4.6132218E-2,-5.955555E-2,-6.6718824E-2,-6.68629E-2,-7.05906E-2],"split_indices":[39,40,40,39,19,39,40,78,40,40,39,19,63,39,39,0,0,0,0,0,0,0,0,0,0,0,0,0,0,0,0],"split_type":[0,0,0,0,0,0,0,0,0,0,0,0,0,0,0,0,0,0,0,0,0,0,0,0,0,0,0,0,0,0,0],"sum_hessian":[5.098429E4,1.098802E4,3.999627E4,2.2100474E3,8.777972E3,4.0536448E3,3.5942625E4,3.1793103E2,1.8921165E3,3.9903708E3,4.787601E3,2.6058696E3,1.447775E3,1.960531E4,1.63373125E4,1.4871547E1,3.0305948E2,4.7024323E2,1.4218732E3,2.255819E3,1.7345516E3,8.847262E2,3.9028745E3,9.2684753E2,1.6790222E3,1.1289159E3,3.188591E2,1.0148418E4,9.456894E3,7.0192544E3,9.318058E3],"tree_param":{"num_deleted":"0","num_feature":"170","num_nodes":"31","size_leaf_vector":"0"}},{"base_weights":[-1.1740457E0,-9.0953714E-1,-1.2399898E0,-5.0238967E-1,-9.8799825E-1,-1.024045E0,-1.2845595E0,-8.7362595E-2,-5.8429396E-1,-8.782597E-1,-1.1563964E0,-9.590832E-1,-1.1874939E0,-1.2031089E0,-1.325084E0,-8.736874E-3,3.4447063E-2,1.4858331E-3,-3.1034047E-2,-3.291624E-2,-4.8672803E-2,-5.0026562E-2,-6.1536606E-2,-3.6269274E-2,-5.0661743E-2,-3.809677E-2,-6.0729034E-2,-5.6821477E-2,-6.466424E-2,-5.6733437E-2,-6.678732E-2],"categories":[],"categories_nodes":[],"categories_segments":[],"categories_sizes":[],"default_left":[0,0,0,0,0,0,0,0,0,0,0,0,0,0,0,0,0,0,0,0,0,0,0,0,0,0,0,0,0,0,0],"id":9,"left_children":[1,3,5,7,9,11,13,15,17,19,21,23,25,27,29,-1,-1,-1,-1,-1,-1,-1,-1,-1,-1,-1,-1,-1,-1,-1,-1],"loss_changes":[8.7053906E2,3.182002E2,3.8365625E2,5.481073E1,1.5353711E2,7.1572266E1,1.0783203E2,1.8243408E1,3.0129822E1,1.0546338E2,3.6964355E1,6.1345215E1,2.1476318E1,6.482422E1,4.3410156E1,0E0,0E0,0E0,0E0,0E0,0E0,0E0,0E0,0E0,0E0,0E0,0E0,0E0,0E0,0E0,0E0],"parents":[2147483647,0,0,1,1,2,2,3,3,4,4,5,5,6,6,7,7,8,8,9,9,10,10,11,11,12,12,13,13,14,14],"right_children":[2,4,6,8,10,12,14,16,18,20,22,24,26,28,30,-1,-1,-1,-1,-1,-1,-1,-1,-1,-1,-1,-1,-1,-1,-1,-1],"split_conditions":[3.358788E-1,2.9109737E-1,3.44155E-1,6.5603636E-2,5.3707E-1,6.565815E-1,5.51362E-1,-6E2,9.38484E4,1.4919405E-1,2E0,1.3851288E-1,2.4167287E-1,5.567274E-1,2.776834E-1,-8.736874E-3,3.4447063E-2,1.4858331E-3,-3.1034047E-2,-3.291624E-2,-4.8672803E-2,-5.0026562E-2,-6.1536606E-2,-3.6269274E-2,-5.0661743E-2,-3.809677E-2,-6.0729034E-2,-5.6821477E-2,-6.466424E-2,-5.6733437E-2,-6.678732E-2],"split_indices":[39,40,40,39,40,39,39,21,158,39,1,40,38,40,38,0,0,0,0,0,0,0,0,0,0,0,0,0,0,0,0],"split_type":[0,0,0,0,0,0,0,0,0,0,0,0,0,0,0,0,0,0,0,0,0,0,0,0,0,0,0,0,0,0,0],"sum_hessian":[4.997263E4,9.975331E3,3.99973E4,1.6129376E3,8.362394E3,6.8469634E3,3.3150336E4,2.6618518E2,1.3467524E3,5.066784E3,3.2956096E3,4.9045493E3,1.9424141E3,1.1023945E4,2.212639E4,2.3995284E2,2.6232359E1,7.5355255E1,1.2713972E3,1.5329882E3,3.533796E3,1.0688754E3,2.2267341E3,9.2537695E2,3.9791726E3,1.179794E2,1.8244347E3,6.345472E3,4.6784727E3,1.1789606E3,2.094743E4],"tree_param":{"num_deleted":"0","num_feature":"170","num_nodes":"31","size_leaf_vector":"0"}},{"base_weights":[-1.1374451E0,-9.460743E-1,-1.2262952E0,-6.2575406E-1,-1.0327753E0,-9.481483E-1,-1.2563084E0,-4.0850326E-1,-7.393595E-1,-7.726724E-1,-1.0875984E0,-1.0410082E0,-8.0083287E-1,-1.2060857E0,-1.3197534E0,-8.301896E-3,-2.6883129E-2,-1.2409005E-2,-3.882028E-2,-4.718072E-2,-2.9606486E-2,-4.5589715E-2,-5.718987E-2,-4.460649E-2,-5.532844E-2,-4.079447E-2,2.4286864E-2,-5.7963897E-2,-6.4543575E-2,-6.694076E-2,-6.315239E-2],"categories":[],"categories_nodes":[],"categories_segments":[],"categories_sizes":[],"default_left":[0,0,0,0,0,1,0,0,0,1,1,0,1,0,1,0,0,0,0,0,0,0,0,0,0,0,0,0,0,0,0],"id":10,"left_children":[1,3,5,7,9,11,13,15,17,19,21,23,25,27,29,-1,-1,-1,-1,-1,-1,-1,-1,-1,-1,-1,-1,-1,-1,-1,-1],"loss_changes":[8.327656E2,4.3135352E2,2.7839453E2,8.1539795E1,1.737002E2,4.3843018E1,9.472266E1,3.5638107E1,3.9405396E1,6.530945E1,9.881348E1,1.8532959E1,2.4940552E1,6.550391E1,1.2734375E1,0E0,0E0,0E0,0E0,0E0,0E0,0E0,0E0,0E0,0E0,0E0,0E0,0E0,0E0,0E0,0E0],"parents":[2147483647,0,0,1,1,2,2,3,3,4,4,5,5,6,6,7,7,8,8,9,9,10,10,11,11,12,12,13,13,14,14],"right_children":[2,4,6,8,10,12,14,16,18,20,22,24,26,28,30,-1,-1,-1,-1,-1,-1,-1,-1,-1,-1,-1,-1,-1,-1,-1,-1],"split_conditions":[4.511421E-1,3.457848E-1,2.608559E-1,2.087147E-1,1.4944682E-1,4.999813E-1,5.495965E-1,1.7665258E-1,7.801577E-2,-1.712E3,5.567625E4,5.660581E-1,9.670455E3,6.6195536E-1,8.3333336E-2,-8.301896E-3,-2.6883129E-2,-1.2409005E-2,-3.882028E-2,-4.718072E-2,-2.9606486E-2,-4.5589715E-2,-5.718987E-2,-4.460649E-2,-5.532844E-2,-4.079447E-2,2.4286864E-2,-5.7963897E-2,-6.4543575E-2,-6.694076E-2,-6.315239E-2],"split_indices":[39,40,40,39,39,63,40,40,40,19,58,39,56,39,127,0,0,0,0,0,0,0,0,0,0,0,0,0,0,0,0],"split_type":[0,0,0,0,0,0,0,0,0,0,0,0,0,0,0,0,0,0,0,0,0,0,0,0,0,0,0,0,0,0,0],"sum_hessian":[4.904412E4,1.5554189E4,3.3489934E4,3.3149995E3,1.2239189E4,3.2649246E3,3.0225008E4,1.1398427E3,2.1751567E3,2.1332603E3,1.010593E4,1.9988739E3,1.2660508E3,1.6881615E4,1.3343393E4,3.969502E2,7.4289246E2,1.5309062E2,2.0220662E3,1.0935939E3,1.0396664E3,2.4521692E3,7.6537603E3,6.155832E2,1.3832906E3,1.2517675E3,1.4283321E1,1.0886284E4,5.995331E3,9.969518E3,3.3738752E3],"tree_param":{"num_deleted":"0","num_feature":"170","num_nodes":"31","size_leaf_vector":"0"}},{"base_weights":[-1.1031268E0,-8.8778067E-1,-1.182914E0,-5.65293E-1,-9.768497E-1,-9.068684E-1,-1.2161874E0,-1.4533053E-1,-6.203965E-1,-7.2913074E-1,-1.0350405E0,-8.121165E-1,-1.0535198E0,-1.1655221E0,-1.2805027E0,-2.5441527E-2,7.207973E-4,-2.8400762E-2,-4.7390234E-2,-4.355163E-2,-2.6016602E-2,-4.717752E-2,-5.775345E-2,-4.6643224E-2,-3.527464E-2,-2.9500505E-2,-5.395944E-2,-5.564297E-2,-6.2497836E-2,-6.5247856E-2,-6.140281E-2],"categories":[],"categories_nodes":[],"categories_segments":[],"categories_sizes":[],"default_left":[0,0,0,0,0,0,0,0,0,0,0,1,0,0,1,0,0,0,0,0,0,0,0,0,0,0,0,0,0,0,0],"id":11,"left_children":[1,3,5,7,9,11,13,15,17,19,21,23,25,27,29,-1,-1,-1,-1,-1,-1,-1,-1,-1,-1,-1,-1,-1,-1,-1,-1],"loss_changes":[8.242461E2,3.7255078E2,3.2077734E2,6.501886E1,1.4594336E2,5.1581543E1,1.0041016E2,1.9033333E1,4.211194E1,5.700464E1,8.9381836E1,2.8913086E1,1.6946167E1,7.64375E1,1.605664E1,0E0,0E0,0E0,0E0,0E0,0E0,0E0,0E0,0E0,0E0,0E0,0E0,0E0,0E0,0E0,0E0],"parents":[2147483647,0,0,1,1,2,2,3,3,4,4,5,5,6,6,7,7,8,8,9,9,10,10,11,11,12,12,13,13,14,14],"right_children":[2,4,6,8,10,12,14,16,18,20,22,24,26,28,30,-1,-1,-1,-1,-1,-1,-1,-1,-1,-1,-1,-1,-1,-1,-1,-1],"split_conditions":[4.079249E-1,3.457848E-1,2.707074E-1,6.31682E-2,1.3861348E-1,6.3298297E-1,5.495965E-1,4.074074E-1,5.07876E-1,-7.84E2,5.424451E-1,-7.37E2,2.0940669E-1,6.4755744E-1,4.3866E2,-2.5441527E-2,7.207973E-4,-2.8400762E-2,-4.7390234E-2,-4.355163E-2,-2.6016602E-2,-4.717752E-2,-5.775345E-2,-4.6643224E-2,-3.527464E-2,-2.9500505E-2,-5.395944E-2,-5.564297E-2,-6.2497836E-2,-6.5247856E-2,-6.140281E-2],"split_indices":[39,40,40,39,39,39,40,64,38,54,40,109,38,39,123,0,0,0,0,0,0,0,0,0,0,0,0,0,0,0,0],"split_type":[0,0,0,0,0,0,0,0,0,0,0,0,0,0,0,0,0,0,0,0,0,0,0,0,0,0,0,0,0,0,0],"sum_hessian":[4.8031992E4,1.2988394E4,3.5043598E4,2.812535E3,1.0175859E4,3.77268E3,3.1270918E4,3.2665115E2,2.4858838E3,1.938247E3,8.237612E3,2.2958577E3,1.4768223E3,1.7502326E4,1.3768592E4,9.905903E1,2.2759213E2,2.1453835E3,3.4050018E2,1.1520974E3,7.861495E2,4.6795513E3,3.5580608E3,1.0729862E3,1.2228713E3,7.8752815E1,1.3980695E3,1.0787951E4,6.714376E3,9.373902E3,4.3946895E3],"tree_param":{"num_deleted":"0","num_feature":"170","num_nodes":"31","size_leaf_vector":"0"}},{"base_weights":[-1.0699004E0,-8.6621016E-1,-1.1545683E0,-5.809901E-1,-9.315119E-1,-9.117573E-1,-1.1720343E0,-7.479266E-1,-3.9949405E-1,-1.0837246E0,-8.4102315E-1,-2.9646564E-1,-9.378953E-1,-1.1259023E0,-1.2473147E0,-4.85034E-2,-3.152254E-2,-2.5073726E-2,-7.393174E-4,-5.5441923E-2,-3.8545903E-2,-4.8139736E-2,-3.6926534E-2,-3.6655765E-3,-4.0683884E-2,-5.2925464E-2,-4.044623E-2,-5.8344733E-2,-5.1269896E-2,-6.396436E-2,-5.967421E-2],"categories":[],"categories_nodes":[],"categories_segments":[],"categories_sizes":[],"default_left":[0,0,0,0,1,0,0,0,1,1,0,1,1,1,1,0,0,0,0,0,0,0,0,0,0,0,0,0,0,0,0],"id":12,"left_children":[1,3,5,7,9,11,13,15,17,19,21,23,25,27,29,-1,-1,-1,-1,-1,-1,-1,-1,-1,-1,-1,-1,-1,-1,-1,-1],"loss_changes":[8.1058594E2,2.5688965E2,1.3989062E2,7.779779E1,1.5397168E2,3.566626E1,1.0626953E2,3.4396545E1,4.852684E1,3.2053223E1,8.736328E1,1.062082E1,3.2486572E1,7.8046875E1,1.8734375E1,0E0,0E0,0E0,0E0,0E0,0E0,0E0,0E0,0E0,0E0,0E0,0E0,0E0,0E0,0E0,0E0],"parents":[2147483647,0,0,1,1,2,2,3,3,4,4,5,5,6,6,7,7,8,8,9,9,10,10,11,11,12,12,13,13,14,14],"right_children":[2,4,6,8,10,12,14,16,18,20,22,24,26,28,30,-1,-1,-1,-1,-1,-1,-1,-1,-1,-1,-1,-1,-1,-1,-1,-1],"split_conditions":[4.28068E-1,1.366823E-1,2.7657843E-1,-6.553333E2,-3.053E3,7.938421E-2,6.5695125E-1,-1.8209E4,2E0,7.7633336E4,-7.838E2,9.902864E-1,1.5873017E-2,8.695652E-2,4.0816326E-2,-4.85034E-2,-3.152254E-2,-2.5073726E-2,-7.393174E-4,-5.5441923E-2,-3.8545903E-2,-4.8139736E-2,-3.6926534E-2,-3.6655765E-3,-4.0683884E-2,-5.2925464E-2,-4.044623E-2,-5.8344733E-2,-5.1269896E-2,-6.396436E-2,-5.967421E-2],"split_indices":[39,39,38,53,19,38,39,18,118,156,53,114,127,127,127,0,0,0,0,0,0,0,0,0,0,0,0,0,0,0,0],"split_type":[0,0,0,0,0,0,0,0,0,0,0,0,0,0,0,0,0,0,0,0,0,0,0,0,0,0,0,0,0,0,0],"sum_hessian":[4.7058098E4,1.3820534E4,3.3237562E4,2.5765898E3,1.1243944E4,2.23399E3,3.1003574E4,1.3405016E3,1.2360884E3,4.1880938E3,7.0558506E3,9.153733E1,2.1424526E3,1.92333E4,1.1770272E4,4.6117795E2,8.793236E2,9.76839E2,2.5924936E2,3.8744846E3,3.1360944E2,3.2208079E3,3.8350425E3,6.474463E1,2.6792702E1,1.10337E3,1.0390826E3,1.3653775E4,5.5795254E3,7.37008E3,4.400192E3],"tree_param":{"num_deleted":"0","num_feature":"170","num_nodes":"31","size_leaf_vector":"0"}},{"base_weights":[-1.0392984E0,-7.750603E-1,-1.098877E0,-5.6537163E-1,-8.5411954E-1,-1.1563927E0,-9.912214E-1,-7.095945E-1,-4.0656358E-1,-1.0309124E0,-7.916223E-1,-1.2001021E0,-1.0837433E0,-1.0487901E0,-8.282657E-1,-4.380331E-2,-2.7403867E-2,-2.173022E-2,3.0474115E-2,-5.5065632E-2,-4.6902474E-2,-4.3008555E-2,-3.0490885E-2,-6.1740875E-2,-5.699836E-2,-5.7878464E-2,-5.073427E-2,-6.052153E-2,-5.0076652E-2,-4.8382718E-2,-3.3712164E-2],"categories":[],"categories_nodes":[],"categories_segments":[],"categories_sizes":[],"default_left":[0,0,0,1,0,1,1,0,1,1,1,1,1,0,0,0,0,0,0,0,0,0,0,0,0,0,0,0,0,0,0],"id":13,"left_children":[1,3,5,7,9,11,13,15,17,19,21,23,25,27,29,-1,-1,-1,-1,-1,-1,-1,-1,-1,-1,-1,-1,-1,-1,-1,-1],"loss_changes":[7.2501953E2,1.4020801E2,2.3180469E2,5.2999634E1,6.72583E1,7.6546875E1,1.2209668E2,3.226831E1,3.1879822E1,9.46521E0,5.625757E1,3.0527344E1,4.5828125E1,7.274609E1,7.291235E1,0E0,0E0,0E0,0E0,0E0,0E0,0E0,0E0,0E0,0E0,0E0,0E0,0E0,0E0,0E0,0E0],"parents":[2147483647,0,0,1,1,2,2,3,3,4,4,5,5,6,6,7,7,8,8,9,9,10,10,11,11,12,12,13,13,14,14],"right_children":[2,4,6,8,10,12,14,16,18,20,22,24,26,28,30,-1,-1,-1,-1,-1,-1,-1,-1,-1,-1,-1,-1,-1,-1,-1,-1],"split_conditions":[3.44155E-1,1.6740845E-1,-6.6213635E2,4.5126867E-1,2E0,4.6875E-2,8.695652E-2,-6.74E2,2.862E3,4.125491E-1,6.140367E-1,-1.798E3,-2.782E3,2E0,-5E1,-4.380331E-2,-2.7403867E-2,-2.173022E-2,3.0474115E-2,-5.5065632E-2,-4.6902474E-2,-4.3008555E-2,-3.0490885E-2,-6.1740875E-2,-5.699836E-2,-5.7878464E-2,-5.073427E-2,-6.052153E-2,-5.0076652E-2,-4.8382718E-2,-3.3712164E-2],"split_indices":[40,40,53,63,6,127,127,109,56,63,63,19,19,6,140,0,0,0,0,0,0,0,0,0,0,0,0,0,0,0,0],"split_type":[0,0,0,0,0,0,0,0,0,0,0,0,0,0,0,0,0,0,0,0,0,0,0,0,0,0,0,0,0,0,0],"sum_hessian":[4.6106676E4,8.485682E3,3.7620992E4,2.3256125E3,6.160069E3,2.4514305E4,1.3106689E4,1.2169559E3,1.1086567E3,1.604825E3,4.5552437E3,1.5295987E4,9.218316E3,9.681128E3,3.4255613E3,5.9710785E2,6.198481E2,1.0794387E3,2.9218042E1,9.0663696E2,6.981879E2,3.3052715E3,1.2499723E3,9.685233E3,5.610754E3,4.4477344E3,4.7705825E3,2.1845063E3,7.4966216E3,1.7954325E3,1.6301289E3],"tree_param":{"num_deleted":"0","num_feature":"170","num_nodes":"31","size_leaf_vector":"0"}},{"base_weights":[-1.011282E0,-7.499164E-1,-1.079745E0,-3.5929453E-1,-8.289392E-1,-8.585322E-1,-1.1276039E0,6.319273E-3,-4.388942E-1,-9.8895717E-1,-7.026665E-1,-7.822523E-1,-1.0111904E0,-1.0680337E0,-1.1932722E0,3.5995792E-3,-4.2380918E-2,-3.7297525E-3,-2.4596544E-2,-4.5492142E-2,-5.4977782E-2,-1.7924089E-2,-3.8278006E-2,-2.9839708E-2,-4.241235E-2,-2.8635954E-2,-5.1972814E-2,-4.9709093E-2,-5.7612956E-2,-5.716973E-2,-6.116997E-2],"categories":[],"categories_nodes":[],"categories_segments":[],"categories_sizes":[],"default_left":[0,0,0,0,1,0,0,0,0,0,0,0,0,0,0,0,0,0,0,0,0,0,0,0,0,0,0,0,0,0,0],"id":14,"left_children":[1,3,5,7,9,11,13,15,17,19,21,23,25,27,29,-1,-1,-1,-1,-1,-1,-1,-1,-1,-1,-1,-1,-1,-1,-1,-1],"loss_changes":[8.06625E2,2.889248E2,3.775703E2,4.5935867E1,1.5675537E2,7.3313965E1,1.13703125E2,1.594129E1,2.5006256E1,2.9051025E1,9.408203E1,5.1484375E1,2.5641357E1,9.477734E1,1.9595703E1,0E0,0E0,0E0,0E0,0E0,0E0,0E0,0E0,0E0,0E0,0E0,0E0,0E0,0E0,0E0,0E0],"parents":[2147483647,0,0,1,1,2,2,3,3,4,4,5,5,6,6,7,7,8,8,9,9,10,10,11,11,12,12,13,13,14,14],"right_children":[2,4,6,8,10,12,14,16,18,20,22,24,26,28,30,-1,-1,-1,-1,-1,-1,-1,-1,-1,-1,-1,-1,-1,-1,-1,-1],"split_conditions":[3.394146E-1,2.9109737E-1,3.457848E-1,7.1850255E-2,-2.483E3,6.40801E-1,5.460232E-1,6.018753E-1,8.673126E-2,5.691488E-1,8.0365084E-2,1.6441418E-1,2.4050678E-1,6.1206776E-1,5.781077E-1,3.5995792E-3,-4.2380918E-2,-3.7297525E-3,-2.4596544E-2,-4.5492142E-2,-5.4977782E-2,-1.7924089E-2,-3.8278006E-2,-2.9839708E-2,-4.241235E-2,-2.8635954E-2,-5.1972814E-2,-4.9709093E-2,-5.7612956E-2,-5.716973E-2,-6.116997E-2],"split_indices":[39,40,40,39,19,39,40,38,40,40,39,40,38,39,39,0,0,0,0,0,0,0,0,0,0,0,0,0,0,0,0],"split_type":[0,0,0,0,0,0,0,0,0,0,0,0,0,0,0,0,0,0,0,0,0,0,0,0,0,0,0,0,0,0,0],"sum_hessian":[4.5122473E4,9.368632E3,3.575384E4,1.5773082E3,7.7913237E3,6.362779E3,2.939106E4,2.8217142E2,1.2951368E3,3.4334646E3,4.3578594E3,4.2468477E3,2.1159312E3,1.5420143E4,1.3970919E4,2.6287094E2,1.930047E1,1.6489691E2,1.1302399E3,2.0070153E3,1.4264492E3,6.743237E2,3.6835354E3,1.1172356E3,3.129612E3,1.294293E2,1.9865017E3,8.222848E3,7.1972944E3,5.2756504E3,8.695269E3],"tree_param":{"num_deleted":"0","num_feature":"170","num_nodes":"31","size_leaf_vector":"0"}},{"base_weights":[-9.8116785E-1,-6.938987E-1,-1.0352076E0,-6.3224417E-1,-9.5890486E-1,-9.566477E-1,-1.1295053E0,-4.359373E-1,-7.08369E-1,-9.698039E-1,1.3699216E-1,-9.116193E-1,-1.1381093E0,-1.1679716E0,-1.0668676E0,-2.6794398E-2,-1.2593384E-2,-1.6612973E-2,-3.697386E-2,-3.489034E-2,-5.02756E-2,-2.1762364E-2,6.572275E-2,-5.0790627E-2,-4.1319977E-2,-5.8354158E-2,-5.1809825E-2,-5.991854E-2,-5.5380553E-2,-5.1476516E-2,-6.017853E-2],"categories":[],"categories_nodes":[],"categories_segments":[],"categories_sizes":[],"default_left":[0,0,0,0,1,0,1,1,0,0,1,1,1,1,0,0,0,0,0,0,0,0,0,0,0,0,0,0,0,0,0],"id":15,"left_children":[1,3,5,7,9,11,13,15,17,19,21,23,25,27,29,-1,-1,-1,-1,-1,-1,-1,-1,-1,-1,-1,-1,-1,-1,-1,-1],"loss_changes":[6.841328E2,1.1356787E2,2.7396484E2,8.445166E1,1.5863281E1,1.6451562E2,3.9398438E1,2.9071564E1,4.75542E1,1.19646E1,9.900762E0,1.4334375E2,1.0672852E1,1.7831055E1,3.1577148E1,0E0,0E0,0E0,0E0,0E0,0E0,0E0,0E0,0E0,0E0,0E0,0E0,0E0,0E0,0E0,0E0],"parents":[2147483647,0,0,1,1,2,2,3,3,4,4,5,5,6,6,7,7,8,8,9,9,10,10,11,11,12,12,13,13,14,14],"right_children":[2,4,6,8,10,12,14,16,18,20,22,24,26,28,30,-1,-1,-1,-1,-1,-1,-1,-1,-1,-1,-1,-1,-1,-1,-1,-1],"split_conditions":[3.1391668E-1,5.078936E-1,5.388627E-1,1.5100753E-1,1.2E1,5.1064396E-1,-1.92E3,-5.01E2,1.8758711E-1,1.0822632E-1,6E0,-2.147E3,-5.4074073E0,4.6026E2,5.2292085E-1,-2.6794398E-2,-1.2593384E-2,-1.6612973E-2,-3.697386E-2,-3.489034E-2,-5.02756E-2,-2.1762364E-2,6.572275E-2,-5.0790627E-2,-4.1319977E-2,-5.8354158E-2,-5.1809825E-2,-5.991854E-2,-5.5380553E-2,-5.1476516E-2,-6.017853E-2],"split_indices":[40,38,40,40,118,38,19,53,38,40,59,19,124,123,38,0,0,0,0,0,0,0,0,0,0,0,0,0,0,0,0],"split_type":[0,0,0,0,0,0,0,0,0,0,0,0,0,0,0,0,0,0,0,0,0,0,0,0,0,0,0,0,0,0,0],"sum_hessian":[4.4114676E4,6.9869126E3,3.7127766E4,5.6709375E3,1.3159752E3,2.0260098E4,1.6867668E4,1.5864948E3,4.0844426E3,1.3031302E3,1.2845025E1,1.6237025E4,4.0230725E3,1.0439216E4,6.428451E3,1.0269467E3,5.595481E2,3.1291064E2,3.771532E3,1.5360728E2,1.149523E3,9.06826E0,3.776765E0,7.3003696E3,8.936655E3,3.1243672E3,8.987054E2,6.9301484E3,3.5090674E3,5.0560405E3,1.3724106E3],"tree_param":{"num_deleted":"0","num_feature":"170","num_nodes":"31","size_leaf_vector":"0"}},{"base_weights":[-9.546747E-1,-7.382889E-1,-1.0413617E0,-4.3382928E-1,-8.2652944E-1,-7.9742193E-1,-1.0844723E0,-2.5358686E-1,-5.5126995E-1,-9.342136E-1,-6.7356044E-1,-8.9841086E-1,-6.601058E-1,-1.0307596E0,-1.152995E0,-2.0114383E-2,-2.1670812E-3,-1.8990563E-2,-3.238266E-2,-3.891864E-2,-5.054701E-2,-1.45951435E-2,-3.7298203E-2,-2.764819E-2,-4.6439115E-2,-3.616277E-2,-1.9051855E-2,-5.677482E-2,-4.9262036E-2,-5.9011143E-2,-5.475111E-2],"categories":[],"categories_nodes":[],"categories_segments":[],"categories_sizes":[],"default_left":[0,0,0,0,0,1,0,1,1,0,0,0,0,0,1,0,0,0,0,0,0,0,0,0,0,0,0,0,0,0,0],"id":16,"left_children":[1,3,5,7,9,11,13,15,17,19,21,23,25,27,29,-1,-1,-1,-1,-1,-1,-1,-1,-1,-1,-1,-1,-1,-1,-1,-1],"loss_changes":[8.0783203E2,3.3098535E2,3.2277734E2,5.856775E1,1.5686084E2,6.3553955E1,9.506055E1,3.4248E1,2.749112E1,6.6273926E1,1.09031006E2,2.7422607E1,3.433728E1,6.881641E1,1.6831055E1,0E0,0E0,0E0,0E0,0E0,0E0,0E0,0E0,0E0,0E0,0E0,0E0,0E0,0E0,0E0,0E0],"parents":[2147483647,0,0,1,1,2,2,3,3,4,4,5,5,6,6,7,7,8,8,9,9,10,10,11,11,12,12,13,13,14,14],"right_children":[2,4,6,8,10,12,14,16,18,20,22,24,26,28,30,-1,-1,-1,-1,-1,-1,-1,-1,-1,-1,-1,-1,-1,-1,-1,-1],"split_conditions":[4.1609886E-1,3.4741822E-1,3.1703177E-1,2.0710495E-1,-6.633333E2,4.5984098E-1,5.585066E-1,5.097452E-1,7.03728E-1,2E0,1.0618345E-1,8.673126E-2,-6.6E1,3E0,7.588983E0,-2.0114383E-2,-2.1670812E-3,-1.8990563E-2,-3.238266E-2,-3.891864E-2,-5.054701E-2,-1.45951435E-2,-3.7298203E-2,-2.764819E-2,-4.6439115E-2,-3.616277E-2,-1.9051855E-2,-5.677482E-2,-4.9262036E-2,-5.9011143E-2,-5.475111E-2],"split_indices":[39,40,40,39,53,63,40,63,114,1,39,40,55,6,121,0,0,0,0,0,0,0,0,0,0,0,0,0,0,0,0],"split_type":[0,0,0,0,0,0,0,0,0,0,0,0,0,0,0,0,0,0,0,0,0,0,0,0,0,0,0,0,0,0,0],"sum_hessian":[4.310653E4,1.2332349E4,3.0774184E4,2.7724353E3,9.559913E3,4.624748E3,2.6149438E4,1.0950157E3,1.6774194E3,5.607411E3,3.9525022E3,2.661678E3,1.9630701E3,1.4667838E4,1.1481599E4,6.4084784E2,4.5416794E2,6.053992E2,1.0720203E3,1.8536257E3,3.7537854E3,6.310598E2,3.3214424E3,2.1665297E2,2.445025E3,1.5995267E3,3.6354337E2,4.4362617E3,1.0231576E4,7.79921E3,3.6823894E3],"tree_param":{"num_deleted":"0","num_feature":"170","num_nodes":"31","size_leaf_vector":"0"}},{"base_weights":[-9.276442E-1,-7.117522E-1,-1.0141878E0,-5.9806365E-1,-9.4849837E-1,-7.717989E-1,-1.0569154E0,-3.5364676E-1,-6.809268E-1,-8.036103E-1,-1.0200074E0,-8.736307E-1,-6.386818E-1,-1.0026609E0,-1.126346E0,1.6310746E-3,-2.0783E-2,-2.0253746E-2,-3.6975913E-2,-4.365213E-2,-2.7887592E-2,-3.641121E-2,-5.2079547E-2,-1.7014852E-2,-4.4679295E-2,-2.7281536E-2,-4.194188E-2,-3.736772E-2,-5.1131584E-2,-5.083639E-2,-5.711016E-2],"categories":[],"categories_nodes":[],"categories_segments":[],"categories_sizes":[],"default_left":[0,0,0,0,0,1,0,0,0,1,0,0,0,0,0,0,0,0,0,0,0,0,0,0,0,0,0,0,0,0,0],"id":17,"left_children":[1,3,5,7,9,11,13,15,17,19,21,23,25,27,29,-1,-1,-1,-1,-1,-1,-1,-1,-1,-1,-1,-1,-1,-1,-1,-1],"loss_changes":[7.8666016E2,3.2409717E2,3.107168E2,1.6485938E2,3.9707764E1,6.0598145E1,9.51875E1,4.9502502E1,9.80791E1,2.1658875E1,1.5711914E1,2.687146E1,3.603015E1,7.24668E1,1.832129E1,0E0,0E0,0E0,0E0,0E0,0E0,0E0,0E0,0E0,0E0,0E0,0E0,0E0,0E0,0E0,0E0],"parents":[2147483647,0,0,1,1,2,2,3,3,4,4,5,5,6,6,7,7,8,8,9,9,10,10,11,11,12,12,13,13,14,14],"right_children":[2,4,6,8,10,12,14,16,18,20,22,24,26,28,30,-1,-1,-1,-1,-1,-1,-1,-1,-1,-1,-1,-1,-1,-1,-1,-1],"split_conditions":[4.1459078E-1,5.388627E-1,3.1547216E-1,1.5561685E-1,2E0,4.5371923E-1,5.567274E-1,1.7770407E-1,2.4318647E-1,-7.21E2,3.3994585E-1,1.6823596E-1,6.525716E-1,2.7284816E-1,4.3677157E-1,1.6310746E-3,-2.0783E-2,-2.0253746E-2,-3.6975913E-2,-4.365213E-2,-2.7887592E-2,-3.641121E-2,-5.2079547E-2,-1.7014852E-2,-4.4679295E-2,-2.7281536E-2,-4.194188E-2,-3.736772E-2,-5.1131584E-2,-5.083639E-2,-5.711016E-2],"split_indices":[39,40,40,39,1,63,40,40,40,19,38,38,39,38,38,0,0,0,0,0,0,0,0,0,0,0,0,0,0,0,0],"split_type":[0,0,0,0,0,0,0,0,0,0,0,0,0,0,0,0,0,0,0,0,0,0,0,0,0,0,0,0,0,0,0],"sum_hessian":[4.2140688E4,1.2061438E4,3.0079248E4,8.150831E3,3.910607E3,4.510529E3,2.5568719E4,2.0650208E3,6.0858105E3,1.296315E3,2.614292E3,2.5524194E3,1.9581097E3,1.4361654E4,1.1207065E4,2.857312E2,1.7792894E3,1.067565E3,5.0182456E3,1.0088556E3,2.8745935E2,1.8245532E2,2.4318367E3,9.2708084E1,2.4597112E3,1.3392345E3,6.188752E2,1.0446992E3,1.3316955E4,1.424546E3,9.78252E3],"tree_param":{"num_deleted":"0","num_feature":"170","num_nodes":"31","size_leaf_vector":"0"}},{"base_weights":[-9.0466064E-1,-6.4344877E-1,-9.673646E-1,-5.7920593E-1,-9.1865456E-1,-8.870141E-1,-1.0579896E0,-3.9954364E-1,-6.604937E-1,-9.2637E-1,5.014197E-1,-8.413723E-1,-1.0717335E0,-1.0925574E0,-9.7342414E-1,-2.7029773E-2,-1.2494189E-2,-4.19874E-2,-2.9661907E-2,-4.6753436E-2,2.148951E-3,-2.3729445E-2,8.162855E-2,-4.4379707E-2,-3.1794697E-2,-5.538736E-2,-4.8400823E-2,-4.4930834E-2,-5.5246886E-2,-5.2826162E-2,-4.5131307E-2],"categories":[],"categories_nodes":[],"categories_segments":[],"categories_sizes":[],"default_left":[0,0,0,0,1,0,1,1,0,1,1,1,1,0,0,0,0,0,0,0,0,0,0,0,0,0,0,0,0,0,0],"id":18,"left_children":[1,3,5,7,9,11,13,15,17,19,21,23,25,27,29,-1,-1,-1,-1,-1,-1,-1,-1,-1,-1,-1,-1,-1,-1,-1,-1],"loss_changes":[6.744531E2,1.4058203E2,2.4107031E2,9.428052E1,1.699646E1,1.4767188E2,4.4578125E1,4.2488556E1,5.3217896E1,1.2697144E1,1.0492732E1,1.3368945E2,1.1955811E1,2.559961E1,2.5754883E1,0E0,0E0,0E0,0E0,0E0,0E0,0E0,0E0,0E0,0E0,0E0,0E0,0E0,0E0,0E0,0E0],"parents":[2147483647,0,0,1,1,2,2,3,3,4,4,5,5,6,6,7,7,8,8,9,9,10,10,11,11,12,12,13,13,14,14],"right_children":[2,4,6,8,10,12,14,16,18,20,22,24,26,28,30,-1,-1,-1,-1,-1,-1,-1,-1,-1,-1,-1,-1,-1,-1,-1,-1],"split_conditions":[3.457848E-1,5.086139E-1,5.3707E-1,1.7665258E-1,1.4792355E4,5.072043E-1,7.1428575E-2,4.5177737E-1,3E0,1.2E1,1.4741995E5,1.5384616E-1,9.375E-2,2.997063E-1,-1.255E3,-2.7029773E-2,-1.2494189E-2,-4.19874E-2,-2.9661907E-2,-4.6753436E-2,2.148951E-3,-2.3729445E-2,8.162855E-2,-4.4379707E-2,-3.1794697E-2,-5.538736E-2,-4.8400823E-2,-4.4930834E-2,-5.5246886E-2,-5.2826162E-2,-4.5131307E-2],"split_indices":[40,38,40,40,56,38,127,63,6,118,104,127,127,38,45,0,0,0,0,0,0,0,0,0,0,0,0,0,0,0,0],"split_type":[0,0,0,0,0,0,0,0,0,0,0,0,0,0,0,0,0,0,0,0,0,0,0,0,0,0,0,0,0,0,0],"sum_hessian":[4.1214766E4,7.9805767E3,3.3234188E4,6.4727183E3,1.5078585E3,1.7621393E4,1.5612797E4,2.0181404E3,4.454578E3,1.5000562E3,7.8023686E0,1.4134496E4,3.486896E3,1.1074114E4,4.538683E3,1.0376044E3,9.80536E2,1.2122137E3,3.2423643E3,1.4867498E3,1.3306368E1,4.500001E0,3.3023677E0,1.1536149E4,2.5983467E3,2.5810115E3,9.0588446E2,6.6891296E2,1.0405201E4,2.0815479E3,2.457135E3],"tree_param":{"num_deleted":"0","num_feature":"170","num_nodes":"31","size_leaf_vector":"0"}},{"base_weights":[-8.794163E-1,-6.7783964E-1,-9.798781E-1,-5.6985056E-1,-9.030284E-1,-6.9350195E-1,-1.0147579E0,-3.130806E-1,-6.419768E-1,-9.974605E-1,-7.9787767E-1,-6.491781E-1,-1.0222763E0,-9.617991E-1,-1.0932596E0,-4.5144106E-3,-2.1654366E-2,-2.3028573E-2,-3.6474835E-2,-5.2376192E-2,-4.4316627E-2,-2.849759E-2,-4.3294832E-2,-2.757783E-2,-3.9549157E-2,-5.1592212E-2,1.7452305E-2,-3.519055E-2,-4.910451E-2,-5.61936E-2,-5.173343E-2],"categories":[],"categories_nodes":[],"categories_segments":[],"categories_sizes":[],"default_left":[0,0,0,0,1,0,0,0,0,1,0,0,1,0,1,0,0,0,0,0,0,0,0,0,0,0,0,0,0,0,0],"id":19,"left_children":[1,3,5,7,9,11,13,15,17,19,21,23,25,27,29,-1,-1,-1,-1,-1,-1,-1,-1,-1,-1,-1,-1,-1,-1,-1,-1],"loss_changes":[8.126133E2,3.243999E2,2.6699805E2,1.6709302E2,4.2188232E1,4.17854E1,9.826172E1,5.297737E1,1.11614746E2,1.1737793E1,3.1337769E1,3.513562E1,4.877899E0,7.402832E1,1.6083984E1,0E0,0E0,0E0,0E0,0E0,0E0,0E0,0E0,0E0,0E0,0E0,0E0,0E0,0E0,0E0,0E0],"parents":[2147483647,0,0,1,1,2,2,3,3,4,4,5,5,6,6,7,7,8,8,9,9,10,10,11,11,12,12,13,13,14,14],"right_children":[2,4,6,8,10,12,14,16,18,20,22,24,26,28,30,-1,-1,-1,-1,-1,-1,-1,-1,-1,-1,-1,-1,-1,-1,-1,-1],"split_conditions":[4.5335224E-1,5.3707E-1,2.636468E-1,1.5422264E-1,-2.427E3,6.4147365E-1,5.6737924E-1,2E0,3.457848E-1,6.9767445E-2,1.7885895E-1,6.330896E-1,-1.28E2,2.732324E-1,4E0,-4.5144106E-3,-2.1654366E-2,-2.3028573E-2,-3.6474835E-2,-5.2376192E-2,-4.4316627E-2,-2.849759E-2,-4.3294832E-2,-2.757783E-2,-3.9549157E-2,-5.1592212E-2,1.7452305E-2,-3.519055E-2,-4.910451E-2,-5.61936E-2,-5.173343E-2],"split_indices":[39,40,40,39,19,38,40,139,40,127,39,39,109,38,125,0,0,0,0,0,0,0,0,0,0,0,0,0,0,0,0],"split_type":[0,0,0,0,0,0,0,0,0,0,0,0,0,0,0,0,0,0,0,0,0,0,0,0,0,0,0,0,0,0,0],"sum_hessian":[4.0159383E4,1.3360098E4,2.6799283E4,9.03223E3,4.327867E3,2.9119487E3,2.3887334E4,1.9819193E3,7.050311E3,2.275677E3,2.0521902E3,2.568632E3,3.4331668E2,1.4272238E4,9.615097E3,6.944415E2,1.2874779E3,2.2965151E3,4.753796E3,1.5630807E3,7.1259625E2,4.7382404E2,1.5783661E3,1.5242185E3,1.0444136E3,3.4118372E2,2.1329675E0,1.0432856E3,1.3228952E4,6.3034863E3,3.3116104E3],"tree_param":{"num_deleted":"0","num_feature":"170","num_nodes":"31","size_leaf_vector":"0"}},{"base_weights":[-8.55949E-1,-5.953788E-1,-9.199019E-1,-7.064522E-1,-4.5651937E-1,-9.8359543E-1,-8.038766E-1,-5.6204075E-1,-7.760891E-1,-2.3199119E-1,-5.366954E-1,-1.02662E0,-8.860744E-1,-8.702513E-1,-6.1892116E-1,-3.974791E-3,-3.0533647E-2,-3.3085167E-2,-4.1888263E-2,-1.3074758E-2,3.5236325E-2,-2.8497497E-2,-3.3828001E-3,-4.861872E-2,-5.36623E-2,-4.6309587E-2,-3.50512E-2,-4.4420663E-2,-2.0601032E-2,-3.5969988E-2,-1.8786196E-2],"categories":[],"categories_nodes":[],"categories_segments":[],"categories_sizes":[],"default_left":[0,1,0,0,0,1,1,0,0,0,1,0,1,1,1,0,0,0,0,0,0,0,0,0,0,0,0,0,0,0,0],"id":20,"left_children":[1,3,5,7,9,11,13,15,17,19,21,23,25,27,29,-1,-1,-1,-1,-1,-1,-1,-1,-1,-1,-1,-1,-1,-1,-1,-1],"loss_changes":[6.5347266E2,1.1901245E2,2.3207812E2,4.2774414E1,6.182556E1,8.442578E1,1.3662695E2,3.284146E1,1.9878784E1,2.5258358E1,3.950238E1,3.4635742E1,4.5626953E1,6.804346E1,7.191931E1,0E0,0E0,0E0,0E0,0E0,0E0,0E0,0E0,0E0,0E0,0E0,0E0,0E0,0E0,0E0,0E0],"parents":[2147483647,0,0,1,1,2,2,3,3,4,4,5,5,6,6,7,7,8,8,9,9,10,10,11,11,12,12,13,13,14,14],"right_children":[2,4,6,8,10,12,14,16,18,20,22,24,26,28,30,-1,-1,-1,-1,-1,-1,-1,-1,-1,-1,-1,-1,-1,-1,-1,-1],"split_conditions":[3.457848E-1,4.5209038E-1,-6.636667E2,1.9070596E-1,1.5286623E-1,7.5E-2,8.695652E-2,2.1306573E5,2E0,-1.6E1,-7.1388E2,5.884878E-1,-3.5E1,2.205E2,-3.1E1,-3.974791E-3,-3.0533647E-2,-3.3085167E-2,-4.1888263E-2,-1.3074758E-2,3.5236325E-2,-2.8497497E-2,-3.3828001E-3,-4.861872E-2,-5.36623E-2,-4.6309587E-2,-3.50512E-2,-4.4420663E-2,-2.0601032E-2,-3.5969988E-2,-1.8786196E-2],"split_indices":[40,63,53,40,40,127,127,58,1,55,158,40,140,158,140,0,0,0,0,0,0,0,0,0,0,0,0,0,0,0,0],"split_type":[0,0,0,0,0,0,0,0,0,0,0,0,0,0,0,0,0,0,0,0,0,0,0,0,0,0,0,0,0,0,0],"sum_hessian":[3.9246133E4,7.7361675E3,3.1509967E4,4.295843E3,3.440325E3,2.0337805E4,1.117216E4,1.4005281E3,2.8953145E3,9.0626843E2,2.5340564E3,1.41052705E4,6.232535E3,8.2189375E3,2.953223E3,1.284673E2,1.2720608E3,1.0183656E3,1.8769489E3,8.79294E2,2.6974451E1,2.3660876E3,1.6796884E2,6.529993E3,7.5752773E3,5.118816E3,1.1137194E3,7.904696E3,3.1424182E2,2.0884202E3,8.6480273E2],"tree_param":{"num_deleted":"0","num_feature":"170","num_nodes":"31","size_leaf_vector":"0"}},{"base_weights":[-8.3308285E-1,-6.072414E-1,-9.268943E-1,-4.9594346E-1,-8.4744817E-1,-6.847419E-1,-9.720559E-1,-2.3992725E-1,-5.7969344E-1,-6.9854355E-1,-9.2111725E-1,-7.764675E-1,-5.4152733E-1,-9.096077E-1,-1.0424881E0,9.2162695E-3,-1.552848E-2,-2.024801E-2,-3.3282448E-2,-2.2662958E-2,-3.8617935E-2,-4.0745758E-2,-4.988706E-2,-3.6734145E-2,-5.2998997E-2,-2.2375869E-2,-3.7372667E-2,-4.2772677E-2,-5.115844E-2,-5.3766616E-2,-4.8861828E-2],"categories":[],"categories_nodes":[],"categories_segments":[],"categories_sizes":[],"default_left":[0,0,0,0,0,1,0,0,0,0,0,0,0,0,1,0,0,0,0,0,0,0,0,0,0,0,0,0,0,0,0],"id":21,"left_children":[1,3,5,7,9,11,13,15,17,19,21,23,25,27,29,-1,-1,-1,-1,-1,-1,-1,-1,-1,-1,-1,-1,-1,-1,-1,-1],"loss_changes":[8.124121E2,3.0072705E2,2.9579492E2,1.6496155E2,3.8466064E1,5.5599976E1,9.953516E1,5.699244E1,8.686279E1,2.1090576E1,1.857129E1,2.9989624E1,3.1961517E1,7.3640625E1,2.1944336E1,0E0,0E0,0E0,0E0,0E0,0E0,0E0,0E0,0E0,0E0,0E0,0E0,0E0,0E0,0E0,0E0],"parents":[2147483647,0,0,1,1,2,2,3,3,4,4,5,5,6,6,7,7,8,8,9,9,10,10,11,11,12,12,13,13,14,14],"right_children":[2,4,6,8,10,12,14,16,18,20,22,24,26,28,30,-1,-1,-1,-1,-1,-1,-1,-1,-1,-1,-1,-1,-1,-1,-1,-1],"split_conditions":[4.155411E-1,5.3707E-1,3.1703177E-1,1.5003426E-1,2E0,4.9450067E-1,5.3707E-1,1.7982176E-1,3.457848E-1,1.633902E-1,2.4786034E-1,6.411768E-1,6.52532E-1,6.6417825E-1,-2.20083E2,9.2162695E-3,-1.552848E-2,-2.024801E-2,-3.3282448E-2,-2.2662958E-2,-3.8617935E-2,-4.0745758E-2,-4.988706E-2,-3.6734145E-2,-5.2998997E-2,-2.2375869E-2,-3.7372667E-2,-4.2772677E-2,-5.115844E-2,-5.3766616E-2,-4.8861828E-2],"split_indices":[39,40,40,39,1,63,40,40,40,39,39,38,39,39,121,0,0,0,0,0,0,0,0,0,0,0,0,0,0,0,0],"split_type":[0,0,0,0,0,0,0,0,0,0,0,0,0,0,0,0,0,0,0,0,0,0,0,0,0,0,0,0,0,0,0],"sum_hessian":[3.8371258E4,1.1263354E4,2.7107904E4,7.6991E3,3.5642532E3,4.263515E3,2.284439E4,1.8987264E3,5.8003735E3,1.1831917E3,2.3810615E3,2.596254E3,1.6672612E3,1.2115858E4,1.0728531E4,2.7079846E2,1.6279279E3,1.9144095E3,3.885964E3,2.7535165E2,9.0784E2,1.00279987E3,1.3782616E3,2.265893E3,3.303608E2,1.1468645E3,5.203967E2,8.209508E3,3.9063508E3,7.126137E3,3.6023943E3],"tree_param":{"num_deleted":"0","num_feature":"170","num_nodes":"31","size_leaf_vector":"0"}},{"base_weights":[-8.110097E-1,-5.97024E-1,-9.10511E-1,-3.2540905E-1,-6.8521106E-1,-6.055421E-1,-9.4886744E-1,3.647421E-2,-3.8551491E-1,-8.294655E-1,-5.560462E-1,-6.83889E-1,-4.2665905E-1,-8.852343E-1,-1.0289174E0,5.314607E-3,-4.1403137E-2,4.305145E-3,-2.0921249E-2,-4.1931074E-2,1.1199796E-2,-1.587078E-2,-3.2511923E-2,-2.9315496E-2,-4.1262243E-2,-2.2946624E-2,3.2457724E-2,-5.0878126E-2,-4.18633E-2,-4.9378976E-2,-5.398314E-2],"categories":[],"categories_nodes":[],"categories_segments":[],"categories_sizes":[],"default_left":[0,0,0,0,1,1,0,1,0,1,0,0,1,0,0,0,0,0,0,0,0,0,0,0,0,0,0,0,0,0,0],"id":22,"left_children":[1,3,5,7,9,11,13,15,17,19,21,23,25,27,29,-1,-1,-1,-1,-1,-1,-1,-1,-1,-1,-1,-1,-1,-1,-1,-1],"loss_changes":[7.9861523E2,2.8520312E2,2.9909766E2,6.3582764E1,1.6713037E2,3.9858887E1,1.1499609E2,2.5269197E1,3.89368E1,4.1152344E1,1.0652673E2,2.6973694E1,3.0686172E1,7.966113E1,2.0060547E1,0E0,0E0,0E0,0E0,0E0,0E0,0E0,0E0,0E0,0E0,0E0,0E0,0E0,0E0,0E0,0E0],"parents":[2147483647,0,0,1,1,2,2,3,3,4,4,5,5,6,6,7,7,8,8,9,9,10,10,11,11,12,12,13,13,14,14],"right_children":[2,4,6,8,10,12,14,16,18,20,22,24,26,28,30,-1,-1,-1,-1,-1,-1,-1,-1,-1,-1,-1,-1,-1,-1,-1,-1],"split_conditions":[4.3513307E-1,3.5729328E-1,2.6224896E-1,8.153971E-2,-2.208E3,5.8442926E-1,5.388627E-1,3.7E1,3.87951E3,1.64E0,1.8061277E-1,6.329118E-1,4.095E2,2E0,6.462188E-1,5.314607E-3,-4.1403137E-2,4.305145E-3,-2.0921249E-2,-4.1931074E-2,1.1199796E-2,-1.587078E-2,-3.2511923E-2,-2.9315496E-2,-4.1262243E-2,-2.2946624E-2,3.2457724E-2,-5.0878126E-2,-4.18633E-2,-4.9378976E-2,-5.398314E-2],"split_indices":[39,40,40,39,19,63,40,95,131,146,39,39,56,6,39,0,0,0,0,0,0,0,0,0,0,0,0,0,0,0,0],"split_type":[0,0,0,0,0,0,0,0,0,0,0,0,0,0,0,0,0,0,0,0,0,0,0,0,0,0,0,0,0,0,0],"sum_hessian":[3.753244E4,1.1915084E4,2.5617355E4,2.921523E3,8.993561E3,2.8638577E3,2.2753498E4,4.16182E2,2.5053408E3,4.2460493E3,4.747511E3,1.9896235E3,8.7423425E2,1.268334E4,1.0070158E4,3.858951E2,3.0286911E1,1.6331635E2,2.3420247E3,4.209666E3,3.638355E1,1.3448307E3,3.4026804E3,1.1801229E3,8.095006E2,8.4932855E2,2.490565E1,3.3690564E3,9.314284E3,5.5607524E3,4.509406E3],"tree_param":{"num_deleted":"0","num_feature":"170","num_nodes":"31","size_leaf_vector":"0"}},{"base_weights":[-7.900664E-1,-5.887206E-1,-8.975475E-1,-4.8458186E-1,-8.215677E-1,-6.495084E-1,-9.4404894E-1,-2.4116985E-1,-5.719057E-1,-6.7974246E-1,-8.921015E-1,-6.0704046E-1,-9.501839E-1,-8.866084E-1,-1.0238991E0,-2.9084686E-2,-7.957249E-3,-3.9416105E-2,-2.5136E-2,-2.3449762E-2,-3.7797485E-2,-2.609433E-2,-4.585878E-2,-3.3966687E-2,-2.1613602E-2,-4.892317E-2,-1.7894028E-2,-2.3590857E-2,-4.5029413E-2,-4.9107406E-2,-5.3656317E-2],"categories":[],"categories_nodes":[],"categories_segments":[],"categories_sizes":[],"default_left":[0,0,0,0,0,0,0,1,1,0,0,1,1,0,0,0,0,0,0,0,0,0,0,0,0,0,0,0,0,0,0],"id":23,"left_children":[1,3,5,7,9,11,13,15,17,19,21,23,25,27,29,-1,-1,-1,-1,-1,-1,-1,-1,-1,-1,-1,-1,-1,-1,-1,-1],"loss_changes":[7.9153125E2,3.0854883E2,2.745996E2,1.8704004E2,3.8766357E1,4.7565674E1,9.124219E1,6.4897644E1,9.663208E1,2.0708496E1,2.3892334E1,4.1481323E1,7.435913E0,6.737891E1,1.6208984E1,0E0,0E0,0E0,0E0,0E0,0E0,0E0,0E0,0E0,0E0,0E0,0E0,0E0,0E0,0E0,0E0],"parents":[2147483647,0,0,1,1,2,2,3,3,4,4,5,5,6,6,7,7,8,8,9,9,10,10,11,11,12,12,13,13,14,14],"right_children":[2,4,6,8,10,12,14,16,18,20,22,24,26,28,30,-1,-1,-1,-1,-1,-1,-1,-1,-1,-1,-1,-1,-1,-1,-1,-1],"split_conditions":[4.592493E-1,5.424451E-1,3.1703177E-1,1.7209521E-1,2E0,6.389938E-1,5.6737924E-1,-5.345E3,-4.355E3,5E0,3.2882085E-1,5.9391826E-1,-2.1E1,1.9370393E-1,6.4872444E-1,-2.9084686E-2,-7.957249E-3,-3.9416105E-2,-2.5136E-2,-2.3449762E-2,-3.7797485E-2,-2.609433E-2,-4.585878E-2,-3.3966687E-2,-2.1613602E-2,-4.892317E-2,-1.7894028E-2,-2.3590857E-2,-4.5029413E-2,-4.9107406E-2,-5.3656317E-2],"split_indices":[39,40,40,39,1,38,40,19,19,7,38,63,126,38,39,0,0,0,0,0,0,0,0,0,0,0,0,0,0,0,0],"split_type":[0,0,0,0,0,0,0,0,0,0,0,0,0,0,0,0,0,0,0,0,0,0,0,0,0,0,0,0,0,0,0],"sum_hessian":[3.6599332E4,1.2739928E4,2.3859406E4,8.805035E3,3.9348926E3,3.7692393E3,2.0090166E4,2.3257776E3,6.4792573E3,1.3104849E3,2.6244077E3,3.305398E3,4.6384146E2,1.1691756E4,8.398411E3,4.5029593E2,1.8754816E3,1.5670503E3,4.912207E3,3.4992874E2,9.6055615E2,1.6785587E2,2.4565518E3,2.3361555E3,9.692424E2,4.4208234E2,2.1759125E1,3.8233728E2,1.1309418E4,4.555617E3,3.842794E3],"tree_param":{"num_deleted":"0","num_feature":"170","num_nodes":"31","size_leaf_vector":"0"}},{"base_weights":[-7.694964E-1,-4.972486E-1,-8.47461E-1,-7.156965E-1,-3.8302928E-1,-7.662002E-1,-9.436247E-1,-7.992815E-1,-5.614333E-1,-4.9798604E-2,-4.52824E-1,-8.718177E-1,-6.766352E-1,-5.5554074E-1,-9.612131E-1,-4.0989548E-2,-7.9627876E-4,-2.9402742E-2,2.4862438E-2,4.3246546E-3,-1.3152457E-2,-2.035462E-2,-4.3188054E-2,-4.4760678E-2,-2.973005E-2,-4.3087825E-2,-3.084143E-2,1.7149083E-2,-2.989361E-2,-4.4848464E-2,-5.0844945E-2],"categories":[],"categories_nodes":[],"categories_segments":[],"categories_sizes":[],"default_left":[0,1,0,1,0,1,0,1,1,0,0,1,0,0,0,0,0,0,0,0,0,0,0,0,0,0,0,0,0,0,0],"id":24,"left_children":[1,3,5,7,9,11,13,15,17,19,21,23,25,27,29,-1,-1,-1,-1,-1,-1,-1,-1,-1,-1,-1,-1,-1,-1,-1,-1],"loss_changes":[7.570703E2,1.9801685E2,2.160586E2,3.4719727E1,1.2140015E2,1.4169336E2,8.616113E1,2.8369873E1,2.7401062E1,2.6332787E1,8.076776E1,4.4209473E1,8.9629395E1,2.1240799E1,4.2551758E1,0E0,0E0,0E0,0E0,0E0,0E0,0E0,0E0,0E0,0E0,0E0,0E0,0E0,0E0,0E0,0E0],"parents":[2147483647,0,0,1,1,2,2,3,3,4,4,5,5,6,6,7,7,8,8,9,9,10,10,11,11,12,12,13,13,14,14],"right_children":[2,4,6,8,10,12,14,16,18,20,22,24,26,28,30,-1,-1,-1,-1,-1,-1,-1,-1,-1,-1,-1,-1,-1,-1,-1,-1],"split_conditions":[3.399934E-1,-3.115E3,6.1671484E-1,5.7142857E-2,7.959915E-2,-2.309E3,2.473387E-1,7E0,6.9975E5,1.0654356E0,5.458392E-1,1.2203561E4,2E0,7.6062515E-2,2.353365E3,-4.0989548E-2,-7.9627876E-4,-2.9402742E-2,2.4862438E-2,4.3246546E-3,-1.3152457E-2,-2.035462E-2,-4.3188054E-2,-4.4760678E-2,-2.973005E-2,-4.3087825E-2,-3.084143E-2,1.7149083E-2,-2.989361E-2,-4.4848464E-2,-5.0844945E-2],"split_indices":[39,19,39,129,39,19,38,59,163,115,38,161,6,38,133,0,0,0,0,0,0,0,0,0,0,0,0,0,0,0,0],"split_type":[0,0,0,0,0,0,0,0,0,0,0,0,0,0,0,0,0,0,0,0,0,0,0,0,0,0,0,0,0,0,0],"sum_hessian":[3.5686617E4,7.946226E3,2.7740393E4,2.7264817E3,5.2197446E3,1.5040096E4,1.2700297E4,1.7656251E3,9.608566E2,9.0423615E2,4.3155083E3,6.897565E3,8.142531E3,5.5205096E2,1.2148246E4,1.7205323E3,4.5092793E1,9.377213E2,2.3135298E1,5.5202374E2,3.5221243E2,3.885137E3,4.3037137E2,6.358691E3,5.3887427E2,1.9849716E3,6.157559E3,2.4518663E1,5.275323E2,5.6486216E3,6.4996245E3],"tree_param":{"num_deleted":"0","num_feature":"170","num_nodes":"31","size_leaf_vector":"0"}},{"base_weights":[-7.45498E-1,-5.4320425E-1,-8.518455E-1,-4.3937948E-1,-7.737642E-1,-5.4165477E-1,-8.9230895E-1,-1.8736894E-1,-5.1222986E-1,-8.7387604E-1,-6.6006494E-1,-4.465146E-1,-7.1673924E-1,-8.2620364E-1,-9.801624E-1,1.0958459E-2,-1.2756019E-2,-3.631732E-2,-2.2241995E-2,-4.734573E-2,-3.6775585E-2,-8.067627E-3,-3.484344E-2,-2.2815539E-2,6.146877E-2,-6.158266E-3,-3.766865E-2,-2.1586103E-2,-4.2171683E-2,-5.0219685E-2,-4.3547943E-2],"categories":[],"categories_nodes":[],"categories_segments":[],"categories_sizes":[],"default_left":[0,0,0,0,1,0,0,0,1,1,0,1,0,0,1,0,0,0,0,0,0,0,0,0,0,0,0,0,0,0,0],"id":25,"left_children":[1,3,5,7,9,11,13,15,17,19,21,23,25,27,29,-1,-1,-1,-1,-1,-1,-1,-1,-1,-1,-1,-1,-1,-1,-1,-1],"loss_changes":[7.5114844E2,2.8789062E2,2.8690625E2,1.5236694E2,4.1963623E1,4.373462E1,1.1680957E2,5.1393517E1,9.262537E1,1.9356812E1,3.2081116E1,2.8736816E1,2.0118866E1,7.823193E1,2.2123047E1,0E0,0E0,0E0,0E0,0E0,0E0,0E0,0E0,0E0,0E0,0E0,0E0,0E0,0E0,0E0,0E0],"parents":[2147483647,0,0,1,1,2,2,3,3,4,4,5,5,6,6,7,7,8,8,9,9,10,10,11,11,12,12,13,13,14,14],"right_children":[2,4,6,8,10,12,14,16,18,20,22,24,26,28,30,-1,-1,-1,-1,-1,-1,-1,-1,-1,-1,-1,-1,-1,-1,-1,-1],"split_conditions":[4.5237154E-1,5.388627E-1,2.636468E-1,1.5096806E-1,-2.307E3,6.489636E-1,5.460232E-1,1.7876047E-1,-4.401E3,5.882353E-2,7.0490025E-2,3.1338E4,2.0996921E-1,2.0755856E-1,1.2765957E-1,1.0958459E-2,-1.2756019E-2,-3.631732E-2,-2.2241995E-2,-4.734573E-2,-3.6775585E-2,-8.067627E-3,-3.484344E-2,-2.2815539E-2,6.146877E-2,-6.158266E-3,-3.766865E-2,-2.1586103E-2,-4.2171683E-2,-5.0219685E-2,-4.3547943E-2],"split_indices":[39,40,40,39,19,39,40,40,19,127,39,56,38,38,129,0,0,0,0,0,0,0,0,0,0,0,0,0,0,0,0],"split_type":[0,0,0,0,0,0,0,0,0,0,0,0,0,0,0,0,0,0,0,0,0,0,0,0,0,0,0,0,0,0,0],"sum_hessian":[3.4935777E4,1.2039807E4,2.289597E4,8.303512E3,3.7362947E3,2.6437231E3,2.0252246E4,1.862871E3,6.440641E3,1.9833099E3,1.7529847E3,1.7152268E3,9.284963E2,1.1562469E4,8.689778E3,2.6578864E2,1.5970823E3,1.5394866E3,4.9011543E3,1.2942621E3,6.8904785E2,1.2084545E2,1.6321393E3,1.7059824E3,9.244346E0,5.422666E1,8.7426965E2,4.8497775E2,1.1077491E4,7.105033E3,1.5847446E3],"tree_param":{"num_deleted":"0","num_feature":"170","num_nodes":"31","size_leaf_vector":"0"}},{"base_weights":[-7.291422E-1,-5.309486E-1,-8.3845776E-1,-6.703981E-1,-4.0637985E-1,-5.452552E-1,-8.6106706E-1,-7.701793E-1,-5.216774E-1,-1.1373586E-1,-4.7329238E-1,-1.4902626E-1,-5.996597E-1,-7.779842E-1,-9.3288106E-1,-2.8797252E-2,-4.1288104E-2,-9.184019E-3,-3.0181516E-2,-1.0563407E-2,1.1092189E-2,-1.4876934E-2,-2.8137898E-2,-3.961567E-2,1.09443456E-4,-3.687787E-2,-2.294997E-2,-4.303403E-2,-3.389303E-2,-4.8516463E-2,-4.1674316E-2],"categories":[],"categories_nodes":[],"categories_segments":[],"categories_sizes":[],"default_left":[0,0,0,1,0,0,0,0,1,1,0,0,1,0,1,0,0,0,0,0,0,0,0,0,0,0,0,0,0,0,0],"id":26,"left_children":[1,3,5,7,9,11,13,15,17,19,21,23,25,27,29,-1,-1,-1,-1,-1,-1,-1,-1,-1,-1,-1,-1,-1,-1,-1,-1],"loss_changes":[7.3918555E2,2.1058643E2,1.4537793E2,8.4563965E1,1.2553955E2,3.3922577E1,1.2113379E2,3.6495728E1,6.365747E1,3.9156437E1,8.1910645E1,1.8660625E1,2.6564362E1,7.786914E1,3.994922E1,0E0,0E0,0E0,0E0,0E0,0E0,0E0,0E0,0E0,0E0,0E0,0E0,0E0,0E0,0E0,0E0],"parents":[2147483647,0,0,1,1,2,2,3,3,4,4,5,5,6,6,7,7,8,8,9,9,10,10,11,11,12,12,13,13,14,14],"right_children":[2,4,6,8,10,12,14,16,18,20,22,24,26,28,30,-1,-1,-1,-1,-1,-1,-1,-1,-1,-1,-1,-1,-1,-1,-1,-1],"split_conditions":[4.592656E-1,-8.27E2,2.787929E-1,5.882353E-2,1.2610054E-1,1.1693511E-1,6.213561E-1,1.7292869E-1,2E0,2E0,2.5E1,2.25E5,1.6393442E-2,-8.516923E2,8.4745765E-2,-2.8797252E-2,-4.1288104E-2,-9.184019E-3,-3.0181516E-2,-1.0563407E-2,1.1092189E-2,-1.4876934E-2,-2.8137898E-2,-3.961567E-2,1.09443456E-4,-3.687787E-2,-2.294997E-2,-4.303403E-2,-3.389303E-2,-4.8516463E-2,-4.1674316E-2],"split_indices":[39,53,38,127,39,38,39,39,139,118,118,14,127,53,127,0,0,0,0,0,0,0,0,0,0,0,0,0,0,0,0],"split_type":[0,0,0,0,0,0,0,0,0,0,0,0,0,0,0,0,0,0,0,0,0,0,0,0,0,0,0,0,0,0,0],"sum_hessian":[3.4137445E4,1.2137505E4,2.1999941E4,5.7246333E3,6.412871E3,1.5767966E3,2.0423145E4,3.4235168E3,2.3011167E3,1.1939208E3,5.2189507E3,1.9081642E2,1.3859802E3,9.474158E3,1.0948987E4,7.642404E2,2.6592764E3,4.4969382E2,1.851423E3,9.253493E2,2.6857147E2,1.7619515E3,3.456999E3,3.551058E1,1.5530585E2,6.9771985E2,6.882604E2,5.184479E3,4.289679E3,7.9463384E3,3.0026487E3],"tree_param":{"num_deleted":"0","num_feature":"170","num_nodes":"31","size_leaf_vector":"0"}},{"base_weights":[-7.0785654E-1,-5.236491E-1,-8.241132E-1,-1.9001776E-1,-5.977528E-1,-6.255261E-1,-8.923902E-1,-1.7960309E-3,-2.858493E-1,-4.2397982E-1,-6.92713E-1,-7.396932E-1,-5.003703E-1,-8.384132E-1,-9.78667E-1,-8.59689E-3,8.166815E-3,-1.0460335E-3,-1.820944E-2,-6.420962E-3,-2.5949305E-2,-3.015259E-2,-4.197455E-2,-1.597955E-2,-3.8160212E-2,-3.4280237E-2,-2.0618036E-2,-4.43939E-2,-3.4768593E-2,-4.9675398E-2,-4.1104082E-2],"categories":[],"categories_nodes":[],"categories_segments":[],"categories_sizes":[],"default_left":[0,0,0,0,0,1,0,0,0,0,0,0,0,0,1,0,0,0,0,0,0,0,0,0,0,0,0,0,0,0,0],"id":27,"left_children":[1,3,5,7,9,11,13,15,17,19,21,23,25,27,29,-1,-1,-1,-1,-1,-1,-1,-1,-1,-1,-1,-1,-1,-1,-1,-1],"loss_changes":[7.1408984E2,3.1912354E2,2.7676758E2,4.2355797E1,1.7404785E2,7.4450195E1,7.0049805E1,2.2314636E1,3.228608E1,1.0483807E2,8.938208E1,2.6782593E1,4.0490356E1,6.566797E1,1.2779785E1,0E0,0E0,0E0,0E0,0E0,0E0,0E0,0E0,0E0,0E0,0E0,0E0,0E0,0E0,0E0,0E0],"parents":[2147483647,0,0,1,1,2,2,3,3,4,4,5,5,6,6,7,7,8,8,9,9,10,10,11,11,12,12,13,13,14,14],"right_children":[2,4,6,8,10,12,14,16,18,20,22,24,26,28,30,-1,-1,-1,-1,-1,-1,-1,-1,-1,-1,-1,-1,-1,-1,-1,-1],"split_conditions":[4.8098627E-1,2.9109737E-1,4.1010258E-1,2.0601185E-1,2E0,3.9926252E-1,6.640758E-1,5.0983375E-1,1.2373532E-1,1.7717586E-1,5.424451E-1,8.963067E-2,3E0,-4.357E2,1.125E4,-8.59689E-3,8.166815E-3,-1.0460335E-3,-1.820944E-2,-6.420962E-3,-2.5949305E-2,-3.015259E-2,-4.197455E-2,-1.597955E-2,-3.8160212E-2,-3.4280237E-2,-2.0618036E-2,-4.43939E-2,-3.4768593E-2,-4.9675398E-2,-4.1104082E-2],"split_indices":[39,40,40,39,1,63,39,63,40,39,40,40,6,53,161,0,0,0,0,0,0,0,0,0,0,0,0,0,0,0,0],"split_type":[0,0,0,0,0,0,0,0,0,0,0,0,0,0,0,0,0,0,0,0,0,0,0,0,0,0,0,0,0,0,0],"sum_hessian":[3.3363848E4,1.2911393E4,2.0452453E4,2.347226E3,1.0564167E4,5.2353438E3,1.521711E4,7.922314E2,1.5549948E3,3.7349092E3,6.8292573E3,2.7352954E3,2.5000486E3,9.367364E3,5.849746E3,3.901769E2,4.020545E2,3.5516486E2,1.1998298E3,9.0909735E2,2.8258118E3,4.2426733E3,2.586584E3,1.4574077E2,2.5895547E3,8.0305743E2,1.6969911E3,6.9565337E3,2.4108303E3,5.338432E3,5.113136E2],"tree_param":{"num_deleted":"0","num_feature":"170","num_nodes":"31","size_leaf_vector":"0"}},{"base_weights":[-6.879315E-1,-4.4565967E-1,-7.7767164E-1,-3.4856448E-1,-7.2698855E-1,-5.754741E-1,-8.514934E-1,-2.9716432E-1,-7.05312E-1,-5.656386E-1,-8.096118E-1,-4.1381434E-1,-6.583999E-1,-7.66808E-1,-9.230444E-1,-3.035826E-2,-1.1542439E-2,-4.0414497E-2,-2.4401363E-2,-3.642143E-2,-1.8999016E-2,-4.3603383E-2,-3.2764584E-2,-2.8944114E-2,-1.5363008E-2,-3.006435E-2,-4.3449573E-2,-3.0460095E-2,-4.1471086E-2,-2.9377935E-2,-4.684324E-2],"categories":[],"categories_nodes":[],"categories_segments":[],"categories_sizes":[],"default_left":[0,0,0,0,0,0,0,0,1,0,1,1,0,1,0,0,0,0,0,0,0,0,0,0,0,0,0,0,0,0,0],"id":28,"left_children":[1,3,5,7,9,11,13,15,17,19,21,23,25,27,29,-1,-1,-1,-1,-1,-1,-1,-1,-1,-1,-1,-1,-1,-1,-1,-1],"loss_changes":[7.083867E2,2.4048962E2,3.5455078E2,1.1996985E2,2.9675903E1,8.505029E1,1.04859375E2,1.17663055E2,1.8057465E1,2.2959381E1,1.3814331E1,3.782419E1,5.005371E1,7.828955E1,4.3211426E1,0E0,0E0,0E0,0E0,0E0,0E0,0E0,0E0,0E0,0E0,0E0,0E0,0E0,0E0,0E0,0E0],"parents":[2147483647,0,0,1,1,2,2,3,3,4,4,5,5,6,6,7,7,8,8,9,9,10,10,11,11,12,12,13,13,14,14],"right_children":[2,4,6,8,10,12,14,16,18,20,22,24,26,28,30,-1,-1,-1,-1,-1,-1,-1,-1,-1,-1,-1,-1,-1,-1,-1,-1],"split_conditions":[3.7813306E-1,5.726825E-1,4.1184855E-1,5.106153E-1,2E0,2.2383131E-1,6.011567E-1,-1.998E4,1.709091E1,2.00001E0,8.3333336E-2,3.3843178E-1,5.228525E-1,1.0585417E5,2.5020814E-1,-3.035826E-2,-1.1542439E-2,-4.0414497E-2,-2.4401363E-2,-3.642143E-2,-1.8999016E-2,-4.3603383E-2,-3.2764584E-2,-2.8944114E-2,-1.5363008E-2,-3.006435E-2,-4.3449573E-2,-3.0460095E-2,-4.1471086E-2,-2.9377935E-2,-4.684324E-2],"split_indices":[39,40,40,38,1,40,39,18,112,2,127,63,38,58,38,0,0,0,0,0,0,0,0,0,0,0,0,0,0,0,0],"split_type":[0,0,0,0,0,0,0,0,0,0,0,0,0,0,0,0,0,0,0,0,0,0,0,0,0,0,0,0,0,0,0],"sum_hessian":[3.2597172E4,8.812362E3,2.378481E4,6.552971E3,2.259391E3,6.363636E3,1.7421174E4,5.7293237E3,8.2364764E2,7.678158E2,1.4915754E3,2.1595977E3,4.2040386E3,7.9836704E3,9.437504E3,1.00820013E3,4.7211235E3,5.5696497E2,2.6668268E2,4.0754572E2,3.6027005E2,1.0585231E3,4.330523E2,8.45446E2,1.3141516E3,3.3101687E3,8.9386993E2,2.2729978E3,5.7106724E3,3.7511768E2,9.062386E3],"tree_param":{"num_deleted":"0","num_feature":"170","num_nodes":"31","size_leaf_vector":"0"}},{"base_weights":[-6.693821E-1,-7.8308845E-1,-5.550078E-1,-8.2204473E-1,-6.059961E-1,-4.9175504E-1,-8.474228E-1,-8.7582755E-1,-7.21396E-1,-7.224556E-1,-4.520227E-1,-7.071335E-1,-4.0977392E-1,-7.5019974E-1,-9.350133E-1,-4.5400742E-2,-3.725977E-2,-2.8383464E-2,-3.9226007E-2,-3.82102E-2,-1.7535178E-2,1.0989419E-2,-2.4302611E-2,-3.9079506E-2,-2.7881572E-2,-2.6410451E-2,-1.3490896E-2,-3.867388E-2,-3.5305899E-3,-4.180563E-2,-4.8987713E-2],"categories":[],"categories_nodes":[],"categories_segments":[],"categories_sizes":[],"default_left":[1,1,0,1,0,0,0,1,0,1,0,1,1,1,0,0,0,0,0,0,0,0,0,0,0,0,0,0,0,0,0],"id":29,"left_children":[1,3,5,7,9,11,13,15,17,19,21,23,25,27,29,-1,-1,-1,-1,-1,-1,-1,-1,-1,-1,-1,-1,-1,-1,-1,-1],"loss_changes":[4.1437695E2,1.09831055E2,2.9375928E2,7.031348E1,5.1449707E1,2.306399E2,2.3374146E1,3.521924E1,4.3901123E1,2.5220703E1,2.8594757E1,3.9686035E1,1.5691687E2,2.1221924E1,5.7440186E0,0E0,0E0,0E0,0E0,0E0,0E0,0E0,0E0,0E0,0E0,0E0,0E0,0E0,0E0,0E0,0E0],"parents":[2147483647,0,0,1,1,2,2,3,3,4,4,5,5,6,6,7,7,8,8,9,9,10,10,11,11,12,12,13,13,14,14],"right_children":[2,4,6,8,10,12,14,16,18,20,22,24,26,28,30,-1,-1,-1,-1,-1,-1,-1,-1,-1,-1,-1,-1,-1,-1,-1,-1],"split_conditions":[-2.053E3,2E0,5.063912E-1,5.882353E-2,-9.122222E2,3E0,6.396705E-1,4.5873588E-1,2E0,5E0,2.635034E-1,6.278027E-2,-2.03E2,3.82491E3,2.8E1,-4.5400742E-2,-3.725977E-2,-2.8383464E-2,-3.9226007E-2,-3.82102E-2,-1.7535178E-2,1.0989419E-2,-2.4302611E-2,-3.9079506E-2,-2.7881572E-2,-2.6410451E-2,-1.3490896E-2,-3.867388E-2,-3.5305899E-3,-4.180563E-2,-4.8987713E-2],"split_indices":[19,118,38,127,53,6,38,63,1,62,38,127,126,158,118,0,0,0,0,0,0,0,0,0,0,0,0,0,0,0,0],"split_type":[0,0,0,0,0,0,0,0,0,0,0,0,0,0,0,0,0,0,0,0,0,0,0,0,0,0,0,0,0,0,0],"sum_hessian":[3.1895186E4,1.5991364E4,1.5903822E4,1.3104938E4,2.8864255E3,1.3077654E4,2.8261687E3,8.535947E3,4.568991E3,1.64131E3,1.2451156E3,3.6033672E3,9.474286E3,1.3439666E3,1.4822021E3,6.8437285E3,1.6922183E3,1.3329175E3,3.236074E3,1.4746489E3,1.6666121E2,5.97655E1,1.1853501E3,2.4025798E3,1.2007874E3,5.1301885E3,4.344098E3,1.2993228E3,4.46438E1,4.6780313E2,1.0143989E3],"tree_param":{"num_deleted":"0","num_feature":"170","num_nodes":"31","size_leaf_vector":"0"}},{"base_weights":[-6.486226E-1,-4.657235E-1,-7.7171814E-1,-3.6268264E-1,-7.011948E-1,-5.557815E-1,-8.417583E-1,-9.6924186E-2,-4.2839634E-1,-8.0472714E-1,-5.9288365E-1,-6.290087E-1,-3.6596295E-1,-7.756169E-1,-9.199701E-1,-2.5635803E-2,-1.9255225E-3,-1.2878339E-2,-2.6422614E-2,-3.3773474E-2,-4.3212038E-2,-3.232412E-2,-1.3859271E-2,-2.8536638E-2,-4.208907E-2,2.445345E-2,-2.003411E-2,-4.0502116E-2,-2.8458932E-2,-3.8980927E-2,-4.701675E-2],"categories":[],"categories_nodes":[],"categories_segments":[],"categories_sizes":[],"default_left":[0,0,0,0,1,1,0,0,0,0,1,0,0,1,0,0,0,0,0,0,0,0,0,0,0,0,0,0,0,0,0],"id":30,"left_children":[1,3,5,7,9,11,13,15,17,19,21,23,25,27,29,-1,-1,-1,-1,-1,-1,-1,-1,-1,-1,-1,-1,-1,-1,-1,-1],"loss_changes":[7.0146387E2,3.0407056E2,2.8131348E2,1.5236389E2,4.2323853E1,6.323633E1,7.205078E1,4.2031723E1,1.1945117E2,1.4406494E1,3.1448975E1,4.03573E1,3.8000412E1,5.3745117E1,1.7672852E1,0E0,0E0,0E0,0E0,0E0,0E0,0E0,0E0,0E0,0E0,0E0,0E0,0E0,0E0,0E0,0E0],"parents":[2147483647,0,0,1,1,2,2,3,3,4,4,5,5,6,6,7,7,8,8,9,9,10,10,11,11,12,12,13,13,14,14],"right_children":[2,4,6,8,10,12,14,16,18,20,22,24,26,28,30,-1,-1,-1,-1,-1,-1,-1,-1,-1,-1,-1,-1,-1,-1,-1,-1],"split_conditions":[4.875181E-1,5.3707E-1,3.9621958E-1,2.4318647E-1,-2.438E3,5.9496313E-1,5.6737924E-1,1.8846E5,2E0,2.4678567E-1,2E-1,5.3087306E-1,5.4E4,2E-1,4.4139346E-1,-2.5635803E-2,-1.9255225E-3,-1.2878339E-2,-2.6422614E-2,-3.3773474E-2,-4.3212038E-2,-3.232412E-2,-1.3859271E-2,-2.8536638E-2,-4.208907E-2,2.445345E-2,-2.003411E-2,-4.0502116E-2,-2.8458932E-2,-3.8980927E-2,-4.701675E-2],"split_indices":[39,40,40,40,19,63,40,14,1,39,129,38,166,129,38,0,0,0,0,0,0,0,0,0,0,0,0,0,0,0,0],"split_type":[0,0,0,0,0,0,0,0,0,0,0,0,0,0,0,0,0,0,0,0,0,0,0,0,0,0,0,0,0,0,0],"sum_hessian":[3.1171688E4,1.2541677E4,1.8630012E4,8.725841E3,3.815837E3,4.5649663E3,1.4065044E4,1.7303711E3,6.995469E3,1.9476709E3,1.8681659E3,3.292492E3,1.2724746E3,7.6264727E3,6.438572E3,2.1219307E2,1.518178E3,2.5852104E3,4.410259E3,6.179323E2,1.3297385E3,1.5961296E3,2.7203635E2,2.5874912E3,7.0500073E2,4.914298E1,1.2233317E3,6.533953E3,1.0925194E3,8.208306E2,5.617741E3],"tree_param":{"num_deleted":"0","num_feature":"170","num_nodes":"31","size_leaf_vector":"0"}},{"base_weights":[-6.316554E-1,-4.3237862E-1,-7.4771726E-1,-3.2995087E-1,-6.7270243E-1,-5.507897E-1,-8.217908E-1,-1.4704037E-1,-4.2311546E-1,-3.8867894E-1,-7.151061E-1,-4.8811397E-1,-7.753683E-1,-8.666007E-1,-6.8936044E-1,-9.306633E-3,2.1273272E-2,-2.6067449E-2,-1.3521969E-2,-3.1095186E-2,-1.2221299E-2,-3.7458126E-2,-1.9679599E-2,-1.2694663E-2,-2.7452067E-2,-1.8672442E-2,-4.02251E-2,-4.54814E-2,-3.9072815E-2,-3.0706013E-2,-4.501878E-2],"categories":[],"categories_nodes":[],"categories_segments":[],"categories_sizes":[],"default_left":[0,0,0,0,0,0,0,1,1,0,1,0,0,1,0,0,0,0,0,0,0,0,0,0,0,0,0,0,0,0,0],"id":31,"left_children":[1,3,5,7,9,11,13,15,17,19,21,23,25,27,29,-1,-1,-1,-1,-1,-1,-1,-1,-1,-1,-1,-1,-1,-1,-1,-1],"loss_changes":[7.0565137E2,2.7638403E2,2.8090723E2,1.3423346E2,4.015332E1,7.387207E1,8.256348E1,5.963407E1,7.8160645E1,1.45933075E1,3.1675903E1,5.8752747E1,1.3156982E1,3.7635742E1,5.5776855E1,0E0,0E0,0E0,0E0,0E0,0E0,0E0,0E0,0E0,0E0,0E0,0E0,0E0,0E0,0E0,0E0],"parents":[2147483647,0,0,1,1,2,2,3,3,4,4,5,5,6,6,7,7,8,8,9,9,10,10,11,11,12,12,13,13,14,14],"right_children":[2,4,6,8,10,12,14,16,18,20,22,24,26,28,30,-1,-1,-1,-1,-1,-1,-1,-1,-1,-1,-1,-1,-1,-1,-1,-1],"split_conditions":[4.597598E-1,5.3707E-1,4.1709965E-1,2.062516E-1,1.2699486E-1,5.086139E-1,-4.36E2,6.867E1,5.9139784E-2,-1.7967E4,6.9970312E3,1.6740845E-1,1.0547318E-1,5.6603774E-2,6.8427444E-1,-9.306633E-3,2.1273272E-2,-2.6067449E-2,-1.3521969E-2,-3.1095186E-2,-1.2221299E-2,-3.7458126E-2,-1.9679599E-2,-1.2694663E-2,-2.7452067E-2,-1.8672442E-2,-4.02251E-2,-4.54814E-2,-3.9072815E-2,-3.0706013E-2,-4.501878E-2],"split_indices":[39,40,40,39,39,38,53,158,127,18,161,40,40,127,39,0,0,0,0,0,0,0,0,0,0,0,0,0,0,0,0],"split_type":[0,0,0,0,0,0,0,0,0,0,0,0,0,0,0,0,0,0,0,0,0,0,0,0,0,0,0,0,0,0,0],"sum_hessian":[3.0523113E4,1.1235914E4,1.9287201E4,7.879841E3,3.3560732E3,5.274134E3,1.4013066E4,2.6600093E3,5.2198315E3,4.3728302E2,2.9187903E3,4.1258574E3,1.1482766E3,1.0466143E4,3.546924E3,2.490618E3,1.6939142E2,3.1747478E3,2.0450834E3,1.6584213E2,2.714409E2,2.638027E3,2.8076315E2,8.5276636E2,3.273091E3,7.8542885E1,1.0697336E3,6.9462246E3,3.5199177E3,2.6175232E3,9.2940094E2],"tree_param":{"num_deleted":"0","num_feature":"170","num_nodes":"31","size_leaf_vector":"0"}},{"base_weights":[-6.1349785E-1,-3.39338E-1,-6.9573784E-1,-2.4671759E-1,-6.2364244E-1,-4.3529603E-1,-7.625119E-1,-4.8459497E-1,-1.6249771E-1,-6.495329E-1,1.4650676E-2,-3.627269E-1,-6.520725E-1,-6.807477E-1,-8.572643E-1,-1.163235E-2,-2.8581623E-2,2.2089803E-3,-1.3569943E-2,-3.6730614E-2,-2.3385448E-2,8.51607E-2,-7.265448E-3,-2.3364099E-2,-1.0442899E-2,-1.0323863E-2,-3.4630492E-2,-3.7310716E-2,-2.585944E-2,-4.4937607E-2,-3.7759077E-2],"categories":[],"categories_nodes":[],"categories_segments":[],"categories_sizes":[],"default_left":[0,0,0,1,1,0,0,0,0,1,0,1,0,1,1,0,0,0,0,0,0,0,0,0,0,0,0,0,0,0,0],"id":32,"left_children":[1,3,5,7,9,11,13,15,17,19,21,23,25,27,29,-1,-1,-1,-1,-1,-1,-1,-1,-1,-1,-1,-1,-1,-1,-1,-1],"loss_changes":[6.735254E2,1.8147217E2,3.99417E2,1.04182434E2,2.8007874E1,7.359149E1,1.4114746E2,2.9695984E1,8.655182E1,2.4843933E1,1.8349855E1,5.6503693E1,2.109555E1,1.0481641E2,3.519336E1,0E0,0E0,0E0,0E0,0E0,0E0,0E0,0E0,0E0,0E0,0E0,0E0,0E0,0E0,0E0,0E0],"parents":[2147483647,0,0,1,1,2,2,3,3,4,4,5,5,6,6,7,7,8,8,9,9,10,10,11,11,12,12,13,13,14,14],"right_children":[2,4,6,8,10,12,14,16,18,20,22,24,26,28,30,-1,-1,-1,-1,-1,-1,-1,-1,-1,-1,-1,-1,-1,-1,-1,-1],"split_conditions":[3.320508E-1,5.7091653E-1,3.44155E-1,-3.602E3,4.2857143E-1,6.5995604E-1,5.3707E-1,3.3285058E-1,2E0,-1.394E3,1.1E1,4.9468347E-1,2.678942E-1,8.72093E-2,1.5261238E2,-1.163235E-2,-2.8581623E-2,2.2089803E-3,-1.3569943E-2,-3.6730614E-2,-2.3385448E-2,8.51607E-2,-7.265448E-3,-2.3364099E-2,-1.0442899E-2,-1.0323863E-2,-3.4630492E-2,-3.7310716E-2,-2.585944E-2,-4.4937607E-2,-3.7759077E-2],"split_indices":[39,40,40,19,146,39,40,40,139,19,142,63,38,127,121,0,0,0,0,0,0,0,0,0,0,0,0,0,0,0,0],"split_type":[0,0,0,0,0,0,0,0,0,0,0,0,0,0,0,0,0,0,0,0,0,0,0,0,0,0,0,0,0,0,0],"sum_hessian":[2.9881672E4,6.8964385E3,2.2985234E4,5.20321E3,1.6932288E3,4.692068E3,1.8293166E4,1.359258E3,3.8439517E3,1.6272083E3,6.602048E1,3.5172795E3,1.1747882E3,9.823986E3,8.46918E3,3.4994437E2,1.0093137E3,1.3266919E3,2.51726E3,1.1064404E3,5.207678E2,4.8781414E0,6.1142334E1,2.09302E3,1.4242595E3,9.847064E1,1.0763176E3,7.01327E3,2.810716E3,6.0162773E3,2.4529028E3],"tree_param":{"num_deleted":"0","num_feature":"170","num_nodes":"31","size_leaf_vector":"0"}},{"base_weights":[-5.9502757E-1,-4.4863856E-1,-7.501283E-1,-3.5286966E-1,-6.6848224E-1,-5.513074E-1,-8.2074726E-1,-9.2157595E-2,-4.1777447E-1,-7.7652496E-1,-5.5634844E-1,-6.5510947E-1,-4.031432E-1,-8.613615E-1,-7.02954E-1,-1.9459395E-2,-6.6103495E-4,-8.532346E-3,-2.397192E-2,-3.133016E-2,-4.1274805E-2,-1.2885994E-2,-3.0933848E-2,-3.2998767E-2,8.2773484E-2,-1.3214405E-2,-2.8369153E-2,-4.4265825E-2,-3.390909E-2,-3.8604945E-2,-2.3837905E-2],"categories":[],"categories_nodes":[],"categories_segments":[],"categories_sizes":[],"default_left":[0,0,0,0,1,1,1,0,0,0,0,1,0,1,0,0,0,0,0,0,0,0,0,0,0,0,0,0,0,0,0],"id":33,"left_children":[1,3,5,7,9,11,13,15,17,19,21,23,25,27,29,-1,-1,-1,-1,-1,-1,-1,-1,-1,-1,-1,-1,-1,-1,-1,-1],"loss_changes":[6.63625E2,3.1655444E2,1.988872E2,1.7734741E2,5.486853E1,5.7012085E1,4.9504883E1,4.901767E1,1.27818726E2,1.6531616E1,4.1596985E1,2.5695312E1,3.4898163E1,3.3557617E1,4.171924E1,0E0,0E0,0E0,0E0,0E0,0E0,0E0,0E0,0E0,0E0,0E0,0E0,0E0,0E0,0E0,0E0],"parents":[2147483647,0,0,1,1,2,2,3,3,4,4,5,5,6,6,7,7,8,8,9,9,10,10,11,11,12,12,13,13,14,14],"right_children":[2,4,6,8,10,12,14,16,18,20,22,24,26,28,30,-1,-1,-1,-1,-1,-1,-1,-1,-1,-1,-1,-1,-1,-1,-1,-1],"split_conditions":[5.5065864E-1,5.388627E-1,4.1010258E-1,2.4318647E-1,-2.442E3,4.5907557E-1,8.888889E-2,2E0,1.7433749E-1,2.4678567E-1,1.8144922E-1,3.62835E4,6.5313166E-1,3.4595445E4,-3.7E1,-1.9459395E-2,-6.6103495E-4,-8.532346E-3,-2.397192E-2,-3.133016E-2,-4.1274805E-2,-1.2885994E-2,-3.0933848E-2,-3.2998767E-2,8.2773484E-2,-1.3214405E-2,-2.8369153E-2,-4.4265825E-2,-3.390909E-2,-3.8604945E-2,-2.3837905E-2],"split_indices":[39,40,40,40,19,63,127,6,39,39,39,56,39,156,140,0,0,0,0,0,0,0,0,0,0,0,0,0,0,0,0],"split_type":[0,0,0,0,0,0,0,0,0,0,0,0,0,0,0,0,0,0,0,0,0,0,0,0,0,0,0,0,0,0,0],"sum_hessian":[2.924188E4,1.5045427E4,1.4196453E4,1.0481885E4,4.563542E3,3.723133E3,1.047332E4,2.0898237E3,8.392061E3,2.3211506E3,2.2423916E3,2.1873086E3,1.5358245E3,7.7833623E3,2.689958E3,4.3794763E2,1.6518761E3,1.6766002E3,6.7154604E3,5.7490674E2,1.7462439E3,3.8809308E2,1.8542985E3,2.183425E3,3.883663E0,8.3364014E2,7.021844E2,6.8798325E3,9.0353015E2,2.0583394E3,6.3161865E2],"tree_param":{"num_deleted":"0","num_feature":"170","num_nodes":"31","size_leaf_vector":"0"}},{"base_weights":[-5.7582486E-1,-3.814367E-1,-6.925241E-1,-5.7885176E-1,-2.8189668E-1,-7.8398925E-1,-5.923517E-1,-6.224821E-1,-2.952816E-1,1.06266454E-1,-3.3226198E-1,-7.106074E-1,-8.766827E-1,-5.334927E-1,-8.10757E-1,6.7859776E-3,-3.1966984E-2,-2.3448167E-2,-9.554648E-4,-1.0138786E-2,1.1083818E-2,-1.9064749E-2,2.6169603E-3,-3.7663873E-2,-2.6069438E-2,-3.9858863E-2,-4.6526976E-2,-2.119821E-2,-3.276362E-2,-4.2281654E-2,-2.7116159E-2],"categories":[],"categories_nodes":[],"categories_segments":[],"categories_sizes":[],"default_left":[0,1,1,1,0,0,0,0,1,0,1,1,0,0,1,0,0,0,0,0,0,0,0,0,0,0,0,0,0,0,0],"id":34,"left_children":[1,3,5,7,9,11,13,15,17,19,21,23,25,27,29,-1,-1,-1,-1,-1,-1,-1,-1,-1,-1,-1,-1,-1,-1,-1,-1],"loss_changes":[6.487373E2,2.107782E2,1.6331836E2,4.4322876E1,1.395877E2,6.291455E1,1.0929736E2,3.9922974E1,2.3090626E1,2.931257E1,1.1917804E2,4.1743896E1,1.6912598E1,8.944617E1,1.6487549E1,0E0,0E0,0E0,0E0,0E0,0E0,0E0,0E0,0E0,0E0,0E0,0E0,0E0,0E0,0E0,0E0],"parents":[2147483647,0,0,1,1,2,2,3,3,4,4,5,5,6,6,7,7,8,8,9,9,10,10,11,11,12,12,13,13,14,14],"right_children":[2,4,6,8,10,12,14,16,18,20,22,24,26,28,30,-1,-1,-1,-1,-1,-1,-1,-1,-1,-1,-1,-1,-1,-1,-1,-1],"split_conditions":[4.5897233E-1,-3.078E3,-2.055E3,2.5142857E1,7.743019E-2,6.477421E-1,5.065459E-1,2.3289725E-1,4.375E-1,2.6955E5,2.3076923E-1,2E0,5.4E1,1.0659353E0,1.08E4,6.7859776E-3,-3.1966984E-2,-2.3448167E-2,-9.554648E-4,-1.0138786E-2,1.1083818E-2,-1.9064749E-2,2.6169603E-3,-3.7663873E-2,-2.6069438E-2,-3.9858863E-2,-4.6526976E-2,-2.119821E-2,-3.276362E-2,-4.2281654E-2,-2.7116159E-2],"split_indices":[39,19,19,112,39,39,38,38,64,14,127,118,130,115,161,0,0,0,0,0,0,0,0,0,0,0,0,0,0,0,0],"split_type":[0,0,0,0,0,0,0,0,0,0,0,0,0,0,0,0,0,0,0,0,0,0,0,0,0,0,0,0,0,0,0],"sum_hessian":[2.8608342E4,1.0733542E4,1.7874799E4,3.596295E3,7.137247E3,9.339908E3,8.534892E3,3.1157134E3,4.8058167E2,8.1959064E2,6.3176567E3,5.2178237E3,4.122084E3,6.725776E3,1.8091155E3,6.7613594E1,3.0480996E3,2.946079E2,1.8597377E2,2.2264352E2,5.969471E2,5.6032983E3,7.143584E2,4.255256E3,9.6256793E2,1.6710376E3,2.4510464E3,3.5433606E3,3.1824153E3,1.5991913E3,2.0992409E2],"tree_param":{"num_deleted":"0","num_feature":"170","num_nodes":"31","size_leaf_vector":"0"}},{"base_weights":[-5.6061256E-1,-4.5780456E-1,-7.5897384E-1,-3.983164E-1,-7.3071176E-1,-8.1198037E-1,-6.3805425E-1,-1.6297626E-1,-4.638941E-1,-4.5700857E-1,-7.823788E-1,-5.505831E-1,-8.3102393E-1,-7.6313007E-1,-5.356242E-1,-1.2144206E-2,4.723172E-3,-2.446846E-2,3.6507696E-3,-2.8275613E-2,-8.341262E-3,-4.1779738E-2,-3.06982E-2,-3.838291E-2,-1.988834E-2,-4.2496633E-2,-3.274278E-2,3.2798823E-2,-3.8398765E-2,-1.4887995E-2,-3.149115E-2],"categories":[],"categories_nodes":[],"categories_segments":[],"categories_sizes":[],"default_left":[0,0,1,0,0,0,0,1,1,0,1,0,1,0,1,0,0,0,0,0,0,0,0,0,0,0,0,0,0,0,0],"id":35,"left_children":[1,3,5,7,9,11,13,15,17,19,21,23,25,27,29,-1,-1,-1,-1,-1,-1,-1,-1,-1,-1,-1,-1,-1,-1,-1,-1],"loss_changes":[5.7188086E2,2.997893E2,6.08667E1,2.3416724E2,4.6405396E1,3.2668457E1,3.704492E1,6.809829E1,1.6238818E2,1.6514755E1,2.4404907E1,1.478331E1,2.0099121E1,9.537598E0,3.5899597E1,0E0,0E0,0E0,0E0,0E0,0E0,0E0,0E0,0E0,0E0,0E0,0E0,0E0,0E0,0E0,0E0],"parents":[2147483647,0,0,1,1,2,2,3,3,4,4,5,5,6,6,7,7,8,8,9,9,10,10,11,11,12,12,13,13,14,14],"right_children":[2,4,6,8,10,12,14,16,18,20,22,24,26,28,30,-1,-1,-1,-1,-1,-1,-1,-1,-1,-1,-1,-1,-1,-1,-1,-1],"split_conditions":[5.3707E-1,5.128018E-1,6.896552E-2,2.6224896E-1,2.3661083E-1,3.0590174E-1,-1.253E3,-7.6E1,1.431E2,2.25E1,1.92E1,3.6E5,5.535902E3,1.1295088E-1,2.7828E5,-1.2144206E-2,4.723172E-3,-2.446846E-2,3.6507696E-3,-2.8275613E-2,-8.341262E-3,-4.1779738E-2,-3.06982E-2,-3.838291E-2,-1.988834E-2,-4.2496633E-2,-3.274278E-2,3.2798823E-2,-3.8398765E-2,-1.4887995E-2,-3.149115E-2],"split_indices":[40,38,127,40,40,38,45,55,158,112,112,14,161,38,58,0,0,0,0,0,0,0,0,0,0,0,0,0,0,0,0],"split_type":[0,0,0,0,0,0,0,0,0,0,0,0,0,0,0,0,0,0,0,0,0,0,0,0,0,0,0,0,0,0,0],"sum_hessian":[2.8058883E4,1.8482803E4,9.576081E3,1.5176989E4,3.3058125E3,6.6536553E3,2.9224255E3,3.3082136E3,1.1868775E4,5.265085E2,2.779304E3,4.5385257E2,6.1998027E3,1.31286E3,1.6095654E3,2.524637E3,7.835767E2,1.1331225E4,5.3755133E2,3.825273E2,1.4398119E2,2.1089531E3,6.703509E2,1.8584177E2,2.680108E2,5.595406E3,6.043967E2,4.009916E0,1.3088501E3,4.5777744E2,1.1517881E3],"tree_param":{"num_deleted":"0","num_feature":"170","num_nodes":"31","size_leaf_vector":"0"}},{"base_weights":[-5.435612E-1,-2.920968E-1,-6.3315713E-1,-2.0743011E-1,-5.6309646E-1,-4.237452E-1,-7.1633816E-1,-2.4090561E-1,3.2333145E-1,-3.6685365E-1,-6.6703385E-1,-3.7970924E-1,-7.64282E-1,-6.432957E-1,-8.365275E-1,4.2507327E-3,-1.4817037E-2,1.093198E-2,5.5651266E-2,-2.696955E-2,-7.0185834E-3,-3.4535047E-2,-2.2215296E-3,-2.1097098E-2,-2.843959E-3,-3.184133E-2,-4.4533417E-2,-2.255095E-2,-3.5195194E-2,-4.4338685E-2,-3.7353974E-2],"categories":[],"categories_nodes":[],"categories_segments":[],"categories_sizes":[],"default_left":[0,0,0,1,0,0,0,0,1,1,1,1,1,1,1,0,0,0,0,0,0,0,0,0,0,0,0,0,0,0,0],"id":36,"left_children":[1,3,5,7,9,11,13,15,17,19,21,23,25,27,29,-1,-1,-1,-1,-1,-1,-1,-1,-1,-1,-1,-1,-1,-1,-1,-1],"loss_changes":[6.203081E2,1.6592657E2,3.533872E2,9.807596E1,3.4881287E1,8.630908E1,1.2702832E2,9.3775604E1,2.6845737E1,2.3311844E1,1.654071E1,6.972223E1,1.0068909E1,1.0505957E2,2.4009033E1,0E0,0E0,0E0,0E0,0E0,0E0,0E0,0E0,0E0,0E0,0E0,0E0,0E0,0E0,0E0,0E0],"parents":[2147483647,0,0,1,1,2,2,3,3,4,4,5,5,6,6,7,7,8,8,9,9,10,10,11,11,12,12,13,13,14,14],"right_children":[2,4,6,8,10,12,14,16,18,20,22,24,26,28,30,-1,-1,-1,-1,-1,-1,-1,-1,-1,-1,-1,-1,-1,-1,-1,-1],"split_conditions":[3.5491535E-1,5.726825E-1,4.1184855E-1,2.0565E1,2E0,6.3880616E-1,6.4350945E-1,6.834721E-2,-1.3E1,-2.16E2,4.375E-1,7.517393E4,1.0555229E0,4.725E4,-1.681E3,4.2507327E-3,-1.4817037E-2,1.093198E-2,5.5651266E-2,-2.696955E-2,-7.0185834E-3,-3.4535047E-2,-2.2215296E-3,-2.1097098E-2,-2.843959E-3,-3.184133E-2,-4.4533417E-2,-2.255095E-2,-3.5195194E-2,-4.4338685E-2,-3.7353974E-2],"split_indices":[39,40,40,158,1,38,39,39,140,126,146,156,115,58,19,0,0,0,0,0,0,0,0,0,0,0,0,0,0,0,0],"split_type":[0,0,0,0,0,0,0,0,0,0,0,0,0,0,0,0,0,0,0,0,0,0,0,0,0,0,0,0,0,0,0],"sum_hessian":[2.7539502E4,7.235696E3,2.0303807E4,5.514577E3,1.7211184E3,5.7738853E3,1.4529921E4,5.1879175E3,3.2665955E2,5.975057E2,1.1236127E3,5.114613E3,6.5927264E2,9.041498E3,5.4884224E3,7.540559E2,4.433862E3,2.8955E2,3.7109562E1,3.3835797E2,2.5914774E2,1.0823595E3,4.1253212E1,4.522652E3,5.9196106E2,3.312547E2,3.280179E2,2.1689724E3,6.872526E3,3.5086042E3,1.9798181E3],"tree_param":{"num_deleted":"0","num_feature":"170","num_nodes":"31","size_leaf_vector":"0"}},{"base_weights":[-5.281531E-1,-3.8404286E-1,-6.8804806E-1,-3.005172E-1,-6.2914395E-1,-4.9494472E-1,-7.682854E-1,-4.4104806E-1,-1.885902E-1,-4.8546878E-1,-7.036748E-1,-5.9674853E-1,-3.4765512E-1,-8.088577E-1,-6.257096E-1,-2.4488997E-2,-5.8706E-3,-2.3260776E-2,-4.5472994E-3,-3.0551031E-2,-1.627189E-2,-3.6727574E-2,-1.8735645E-2,-3.3889648E-2,-2.1777574E-2,-5.820013E-3,-2.2052264E-2,-4.3177765E-2,-3.6327537E-2,-3.5076883E-2,-1.876435E-2],"categories":[],"categories_nodes":[],"categories_segments":[],"categories_sizes":[],"default_left":[0,0,0,1,0,1,1,1,0,0,1,1,0,1,0,0,0,0,0,0,0,0,0,0,0,0,0,0,0,0,0],"id":37,"left_children":[1,3,5,7,9,11,13,15,17,19,21,23,25,27,29,-1,-1,-1,-1,-1,-1,-1,-1,-1,-1,-1,-1,-1,-1,-1,-1],"loss_changes":[6.225615E2,2.908994E2,1.9812598E2,1.6675183E2,3.8347046E1,5.6226562E1,5.1839844E1,7.409534E1,1.5948325E2,2.466092E1,2.3865479E1,2.8759888E1,3.3220306E1,3.107129E1,3.7886597E1,0E0,0E0,0E0,0E0,0E0,0E0,0E0,0E0,0E0,0E0,0E0,0E0,0E0,0E0,0E0,0E0],"parents":[2147483647,0,0,1,1,2,2,3,3,4,4,5,5,6,6,7,7,8,8,9,9,10,10,11,11,12,12,13,13,14,14],"right_children":[2,4,6,8,10,12,14,16,18,20,22,24,26,28,30,-1,-1,-1,-1,-1,-1,-1,-1,-1,-1,-1,-1,-1,-1,-1,-1],"split_conditions":[5.512051E-1,5.726825E-1,4.311918E-1,-1.865E3,2E0,4.5860043E-1,4.261466E2,2.52E1,3E0,2.00001E0,8.679249E3,-1.243E3,1.9862005E-1,-1.795E3,-3.34E2,-2.4488997E-2,-5.8706E-3,-2.3260776E-2,-4.5472994E-3,-3.0551031E-2,-1.627189E-2,-3.6727574E-2,-1.8735645E-2,-3.3889648E-2,-2.1777574E-2,-5.820013E-3,-2.2052264E-2,-4.3177765E-2,-3.6327537E-2,-3.5076883E-2,-1.876435E-2],"split_indices":[39,40,40,19,1,63,121,112,6,2,161,19,40,19,53,0,0,0,0,0,0,0,0,0,0,0,0,0,0,0,0],"split_type":[0,0,0,0,0,0,0,0,0,0,0,0,0,0,0,0,0,0,0,0,0,0,0,0,0,0,0,0,0,0,0],"sum_hessian":[2.7028434E4,1.4217696E4,1.2810736E4,1.0605707E4,3.61199E3,3.7626104E3,9.048126E3,4.7007285E3,5.904978E3,1.2362838E3,2.3757063E3,2.223037E3,1.5395732E3,7.0400806E3,2.0080453E3,4.085097E3,6.156314E2,1.5395842E3,4.365394E3,6.911925E2,5.450913E2,2.170727E3,2.0497923E2,1.477164E3,7.458732E2,4.435329E2,1.0960403E3,4.223702E3,2.8163784E3,1.5399474E3,4.6809802E2],"tree_param":{"num_deleted":"0","num_feature":"170","num_nodes":"31","size_leaf_vector":"0"}},{"base_weights":[-5.104916E-1,-3.6836073E-1,-6.706263E-1,-2.7342582E-1,-5.97153E-1,-4.6738455E-1,-7.4740326E-1,-2.7631458E-2,-3.3499256E-1,-7.2673285E-1,-4.9731869E-1,-5.672491E-1,-3.0519402E-1,-7.7600145E-1,-5.4002863E-1,-6.256234E-3,9.01476E-3,-7.788433E-3,-2.100098E-2,-2.7225329E-2,-3.9343383E-2,-2.9439017E-2,-1.5492993E-2,-3.4773383E-2,-2.2937624E-2,-8.9751845E-3,-2.5784869E-2,-4.0352385E-2,-2.9419461E-2,-7.7589625E-3,-2.977289E-2],"categories":[],"categories_nodes":[],"categories_segments":[],"categories_sizes":[],"default_left":[0,0,0,0,1,1,1,1,0,0,1,1,0,1,0,0,0,0,0,0,0,0,0,0,0,0,0,0,0,0,0],"id":38,"left_children":[1,3,5,7,9,11,13,15,17,19,21,23,25,27,29,-1,-1,-1,-1,-1,-1,-1,-1,-1,-1,-1,-1,-1,-1,-1,-1],"loss_changes":[6.0279297E2,3.0477002E2,1.9404004E2,1.5016614E2,5.2887573E1,5.5193726E1,5.3194336E1,4.034069E1,1.20869385E2,1.9176453E1,3.9733643E1,2.9096191E1,3.4430817E1,4.5785645E1,2.3348938E1,0E0,0E0,0E0,0E0,0E0,0E0,0E0,0E0,0E0,0E0,0E0,0E0,0E0,0E0,0E0,0E0],"parents":[2147483647,0,0,1,1,2,2,3,3,4,4,5,5,6,6,7,7,8,8,9,9,10,10,11,11,12,12,13,13,14,14],"right_children":[2,4,6,8,10,12,14,16,18,20,22,24,26,28,30,-1,-1,-1,-1,-1,-1,-1,-1,-1,-1,-1,-1,-1,-1,-1,-1],"split_conditions":[5.518379E-1,5.3707E-1,4.1184855E-1,2.4054141E-1,-3.082E3,4.9491364E-1,4.4519663E3,2E0,2E0,2.462901E-1,6.8571426E-2,-2.313E3,6.688492E-1,9.898603E2,1.5012E4,-6.256234E-3,9.01476E-3,-7.788433E-3,-2.100098E-2,-2.7225329E-2,-3.9343383E-2,-2.9439017E-2,-1.5492993E-2,-3.4773383E-2,-2.2937624E-2,-8.9751845E-3,-2.5784869E-2,-4.0352385E-2,-2.9419461E-2,-7.7589625E-3,-2.977289E-2],"split_indices":[39,40,40,40,19,63,161,118,139,39,127,19,39,121,165,0,0,0,0,0,0,0,0,0,0,0,0,0,0,0,0],"split_type":[0,0,0,0,0,0,0,0,0,0,0,0,0,0,0,0,0,0,0,0,0,0,0,0,0,0,0,0,0,0,0],"sum_hessian":[2.64945E4,1.4038041E4,1.2456458E4,9.9228545E3,4.1151865E3,3.417319E3,9.03914E3,1.9879128E3,7.9349414E3,1.7880754E3,2.327111E3,2.1134934E3,1.3038256E3,7.941251E3,1.0978882E3,1.3536213E3,6.3429144E2,2.5541072E3,5.3808345E3,4.4615298E2,1.3419225E3,1.5625822E3,7.645289E2,9.662244E2,1.147269E3,8.175336E2,4.8629193E2,6.81088E3,1.1303715E3,1.3869772E2,9.591905E2],"tree_param":{"num_deleted":"0","num_feature":"170","num_nodes":"31","size_leaf_vector":"0"}},{"base_weights":[-4.953305E-1,-3.9689738E-1,-6.933033E-1,-3.375092E-1,-6.694807E-1,-7.525929E-1,-5.593764E-1,-4.9834448E-1,-2.420613E-1,-4.4548848E-1,-7.3280394E-1,-7.962128E-1,-6.0328764E-1,-5.969105E-1,-1.398322E-1,-1.5604232E-2,-2.8630761E-2,-2.5080893E-2,-7.287588E-3,-5.090968E-3,-2.5916487E-2,-3.9440304E-2,-2.7342578E-2,-4.5095548E-2,-3.817196E-2,-2.726981E-2,-4.157945E-2,-3.6223408E-2,-2.4501456E-2,2.9139167E-2,-1.360164E-2],"categories":[],"categories_nodes":[],"categories_segments":[],"categories_sizes":[],"default_left":[0,0,1,1,0,1,1,0,0,1,1,0,0,1,0,0,0,0,0,0,0,0,0,0,0,0,0,0,0,0,0],"id":39,"left_children":[1,3,5,7,9,11,13,15,17,19,21,23,25,27,29,-1,-1,-1,-1,-1,-1,-1,-1,-1,-1,-1,-1,-1,-1,-1,-1],"loss_changes":[5.051079E2,2.802202E2,6.795557E1,2.1828235E2,4.3618042E1,3.837378E1,4.158795E1,7.310657E1,2.2316486E2,1.7104538E1,2.4705322E1,1.5294189E1,1.7428558E1,3.2756287E1,2.1042496E1,0E0,0E0,0E0,0E0,0E0,0E0,0E0,0E0,0E0,0E0,0E0,0E0,0E0,0E0,0E0,0E0],"parents":[2147483647,0,0,1,1,2,2,3,3,4,4,5,5,6,6,7,7,8,8,9,9,10,10,11,11,12,12,13,13,14,14],"right_children":[2,4,6,8,10,12,14,16,18,20,22,24,26,28,30,-1,-1,-1,-1,-1,-1,-1,-1,-1,-1,-1,-1,-1,-1,-1,-1],"split_conditions":[5.3707E-1,5.0768375E-1,6.9767445E-2,-2.428E3,2.7644068E-1,-1.014E3,1.1077223E4,3.2806316E-1,3E0,3.987E1,-5.4E0,2E0,5.193605E-1,-3.075E3,2.59281E4,-1.5604232E-2,-2.8630761E-2,-2.5080893E-2,-7.287588E-3,-5.090968E-3,-2.5916487E-2,-3.9440304E-2,-2.7342578E-2,-4.5095548E-2,-3.817196E-2,-2.726981E-2,-4.157945E-2,-3.6223408E-2,-2.4501456E-2,2.9139167E-2,-1.360164E-2],"split_indices":[40,38,127,19,40,19,161,40,6,137,124,6,38,19,134,0,0,0,0,0,0,0,0,0,0,0,0,0,0,0,0],"split_type":[0,0,0,0,0,0,0,0,0,0,0,0,0,0,0,0,0,0,0,0,0,0,0,0,0,0,0,0,0,0,0],"sum_hessian":[2.5933244E4,1.7323105E4,8.610138E3,1.4225921E4,3.0971853E3,5.9648633E3,2.6452744E3,5.296608E3,8.9293125E3,6.843792E2,2.4128062E3,4.6128696E3,1.3519933E3,2.4276633E3,2.1761105E2,1.5114125E3,3.7851956E3,2.4154385E3,6.5138745E3,1.2010671E2,5.6427246E2,1.8518531E3,5.6095306E2,1.0855017E3,3.5273682E3,1.081214E3,2.707793E2,1.1041434E3,1.3235198E3,3.312727E1,1.8448378E2],"tree_param":{"num_deleted":"0","num_feature":"170","num_nodes":"31","size_leaf_vector":"0"}},{"base_weights":[-4.7940984E-1,-3.8117903E-1,-6.795643E-1,-3.2373556E-1,-6.5307754E-1,-7.4113524E-1,-5.3724444E-1,-8.378429E-2,-3.8423693E-1,-4.35656E-1,-7.166187E-1,-7.973922E-1,-6.1350495E-1,-4.7277626E-1,-7.995228E-1,-1.1867108E-2,2.2575033E-3,-2.9735306E-2,-1.5914483E-2,-2.7626498E-2,-1.0496063E-2,-3.8634297E-2,-2.6594603E-2,-3.8290128E-2,-4.586616E-2,-3.306715E-2,-1.640845E-2,-2.7199546E-2,-1.2012265E-2,-4.0407095E-2,4.289947E-2],"categories":[],"categories_nodes":[],"categories_segments":[],"categories_sizes":[],"default_left":[0,0,1,0,0,1,0,1,0,0,1,0,1,1,1,0,0,0,0,0,0,0,0,0,0,0,0,0,0,0,0],"id":40,"left_children":[1,3,5,7,9,11,13,15,17,19,21,23,25,27,29,-1,-1,-1,-1,-1,-1,-1,-1,-1,-1,-1,-1,-1,-1,-1,-1],"loss_changes":[5.001333E2,2.6646924E2,7.301001E1,2.046372E2,4.081726E1,4.147705E1,4.2458313E1,5.624357E1,1.560846E2,1.771431E1,2.3433716E1,1.4654297E1,2.4249939E1,3.3584656E1,7.813629E0,0E0,0E0,0E0,0E0,0E0,0E0,0E0,0E0,0E0,0E0,0E0,0E0,0E0,0E0,0E0,0E0],"parents":[2147483647,0,0,1,1,2,2,3,3,4,4,5,5,6,6,7,7,8,8,9,9,10,10,11,11,12,12,13,13,14,14],"right_children":[2,4,6,8,10,12,14,16,18,20,22,24,26,28,30,-1,-1,-1,-1,-1,-1,-1,-1,-1,-1,-1,-1,-1,-1,-1,-1],"split_conditions":[5.3707E-1,5.115319E-1,-1.383E3,2.4585122E-1,2.7933532E-1,1.4717754E2,5.1841825E-1,-7.16E2,3E0,1.92E1,-5.4E0,5.692782E-1,2.4E1,3.6971634E2,-9E0,-1.1867108E-2,2.2575033E-3,-2.9735306E-2,-1.5914483E-2,-2.7626498E-2,-1.0496063E-2,-3.8634297E-2,-2.6594603E-2,-3.8290128E-2,-4.586616E-2,-3.306715E-2,-1.640845E-2,-2.7199546E-2,-1.2012265E-2,-4.0407095E-2,4.289947E-2],"split_indices":[40,38,19,40,40,121,38,109,6,112,124,38,112,121,66,0,0,0,0,0,0,0,0,0,0,0,0,0,0,0,0],"split_type":[0,0,0,0,0,0,0,0,0,0,0,0,0,0,0,0,0,0,0,0,0,0,0,0,0,0,0,0,0,0,0],"sum_hessian":[2.5449594E4,1.7073332E4,8.376262E3,1.4097229E4,2.9761035E3,5.8438613E3,2.5324004E3,2.8392031E3,1.1258025E4,6.748379E2,2.3012656E3,4.0523962E3,1.7914651E3,2.0349989E3,4.9740146E2,1.2954779E3,1.5437252E3,2.6840215E3,8.574004E3,4.4367697E2,2.311609E2,1.7629899E3,5.382758E2,3.2133828E3,8.3901337E2,1.5331132E3,2.5835202E2,1.556858E3,4.7814084E2,4.9533813E2,2.0633192E0],"tree_param":{"num_deleted":"0","num_feature":"170","num_nodes":"31","size_leaf_vector":"0"}},{"base_weights":[-4.6556354E-1,-3.688102E-1,-6.655344E-1,-3.097993E-1,-6.462847E-1,-6.1989087E-1,-8.405135E-1,-5.5116194E-1,-2.4916969E-1,-3.046475E-1,-6.8550384E-1,-7.21486E-1,-5.13944E-1,-1.0069929E0,-8.1603295E-1,-2.8743451E-2,4.8706103E-3,-6.08045E-3,-2.022814E-2,-1.903445E-2,2.6328115E-2,-3.8745772E-2,-2.8656239E-2,-3.943109E-2,-2.984885E-2,-2.7660398E-2,-6.730107E-3,-5.079819E-2,1.6731497E-2,-3.7560433E-2,-4.4238243E-2],"categories":[],"categories_nodes":[],"categories_segments":[],"categories_sizes":[],"default_left":[0,0,0,0,0,1,0,1,0,1,1,1,1,1,1,0,0,0,0,0,0,0,0,0,0,0,0,0,0,0,0],"id":41,"left_children":[1,3,5,7,9,11,13,15,17,19,21,23,25,27,29,-1,-1,-1,-1,-1,-1,-1,-1,-1,-1,-1,-1,-1,-1,-1,-1],"loss_changes":[4.8438477E2,2.7624243E2,6.470068E1,2.0362402E2,3.945044E1,6.938452E1,6.052368E0,4.302588E1,2.205788E2,1.9579706E1,2.6226562E1,2.7162354E1,4.7227966E1,2.8909607E0,5.9104614E0,0E0,0E0,0E0,0E0,0E0,0E0,0E0,0E0,0E0,0E0,0E0,0E0,0E0,0E0,0E0,0E0],"parents":[2147483647,0,0,1,1,2,2,3,3,4,4,5,5,6,6,7,7,8,8,9,9,10,10,11,11,12,12,13,13,14,14],"right_children":[2,4,6,8,10,12,14,16,18,20,22,24,26,28,30,-1,-1,-1,-1,-1,-1,-1,-1,-1,-1,-1,-1,-1,-1,-1,-1],"split_conditions":[5.3707E-1,5.063426E-1,5.404456E-1,-1.9588E4,1.8088798E-1,-2.483E3,2E0,6.25E-1,1.06586E0,6E0,3.7037037E-2,5E0,5.3573625E4,1.1E1,3E0,-2.8743451E-2,4.8706103E-3,-6.08045E-3,-2.022814E-2,-1.903445E-2,2.6328115E-2,-3.8745772E-2,-2.8656239E-2,-3.943109E-2,-2.984885E-2,-2.7660398E-2,-6.730107E-3,-5.079819E-2,1.6731497E-2,-3.7560433E-2,-4.4238243E-2],"split_indices":[40,38,38,18,40,19,30,146,115,118,127,125,156,49,11,0,0,0,0,0,0,0,0,0,0,0,0,0,0,0,0],"split_type":[0,0,0,0,0,0,0,0,0,0,0,0,0,0,0,0,0,0,0,0,0,0,0,0,0,0,0,0,0,0,0],"sum_hessian":[2.5047309E4,1.688201E4,8.1652983E3,1.3923084E4,2.958927E3,6.4796226E3,1.6856755E3,2.7936497E3,1.1129434E4,3.0560233E2,2.6533247E3,3.304778E3,3.1748445E3,2.1095438E2,1.4747212E3,2.695245E3,9.840476E1,6.1130625E3,5.016371E3,2.8048474E2,2.5117567E1,1.4743776E3,1.1789471E3,2.1436028E3,1.1611753E3,2.8766387E3,2.9820596E2,2.097943E2,1.1600845E0,7.650739E2,7.096472E2],"tree_param":{"num_deleted":"0","num_feature":"170","num_nodes":"31","size_leaf_vector":"0"}},{"base_weights":[-4.487952E-1,-1.986069E-1,-5.25845E-1,-1.4583224E-1,-5.090599E-1,-6.498177E-1,-4.2411816E-1,6.410506E-2,-2.1737865E-1,-6.053232E-1,-3.0118176E-1,-7.139065E-1,-5.2717835E-1,-5.161781E-1,-2.2181897E-1,1.5673504E-3,5.078277E-2,-1.3744767E-2,2.5436329E-3,1.5538083E-3,-3.201899E-2,-1.0028101E-2,-3.677068E-2,6.3075945E-2,-3.5880007E-2,-2.8939322E-2,-9.524002E-3,-2.3064284E-2,-3.8745034E-2,6.077759E-3,-1.7515501E-2],"categories":[],"categories_nodes":[],"categories_segments":[],"categories_sizes":[],"default_left":[0,0,1,0,0,1,1,1,1,0,0,0,1,0,0,0,0,0,0,0,0,0,0,0,0,0,0,0,0,0,0],"id":42,"left_children":[1,3,5,7,9,11,13,15,17,19,21,23,25,27,29,-1,-1,-1,-1,-1,-1,-1,-1,-1,-1,-1,-1,-1,-1,-1,-1],"loss_changes":[4.7491797E2,9.5013596E1,2.3731348E2,7.454216E1,1.6683716E1,6.6348145E1,1.9265845E2,3.930447E1,5.711479E1,1.284996E1,1.1595024E1,4.1566406E1,5.0585815E1,1.0066052E2,1.4294844E2,0E0,0E0,0E0,0E0,0E0,0E0,0E0,0E0,0E0,0E0,0E0,0E0,0E0,0E0,0E0,0E0],"parents":[2147483647,0,0,1,1,2,2,3,3,4,4,5,5,6,6,7,7,8,8,9,9,10,10,11,11,12,12,13,13,14,14],"right_children":[2,4,6,8,10,12,14,16,18,20,22,24,26,28,30,-1,-1,-1,-1,-1,-1,-1,-1,-1,-1,-1,-1,-1,-1,-1,-1],"split_conditions":[3.44155E-1,5.4359E-1,-2.479E3,1.4916746E-1,2.01E1,8.3861664E1,7.54717E-2,1.5255E3,4.332708E3,4.869E3,7.894342E-1,9.360731E-2,2.4222221E1,5.114281E-1,2E0,1.5673504E-3,5.078277E-2,-1.3744767E-2,2.5436329E-3,1.5538083E-3,-3.201899E-2,-1.0028101E-2,-3.677068E-2,6.3075945E-2,-3.5880007E-2,-2.8939322E-2,-9.524002E-3,-2.3064284E-2,-3.8745034E-2,6.077759E-3,-1.7515501E-2],"split_indices":[40,38,19,40,112,121,127,56,161,101,38,38,112,38,139,0,0,0,0,0,0,0,0,0,0,0,0,0,0,0,0],"split_type":[0,0,0,0,0,0,0,0,0,0,0,0,0,0,0,0,0,0,0,0,0,0,0,0,0,0,0,0,0,0,0],"sum_hessian":[2.4640998E4,5.8026836E3,1.8838314E4,4.960847E3,8.418365E2,8.488337E3,1.0349978E4,1.2609547E3,3.6998923E3,5.740815E2,2.67755E2,5.5718057E3,2.9165315E3,7.111987E3,3.2379902E3,1.2199883E3,4.0966354E1,3.0466292E3,6.532631E2,2.9978582E1,5.441029E2,2.1857007E2,4.918495E1,9.762998E0,5.562043E3,2.528285E3,3.882467E2,5.869463E3,1.2425239E3,8.817342E2,2.356256E3],"tree_param":{"num_deleted":"0","num_feature":"170","num_nodes":"31","size_leaf_vector":"0"}},{"base_weights":[-4.3300593E-1,-2.8746542E-1,-5.999111E-1,-9.527198E-2,-3.7911966E-1,-5.314374E-1,-7.45809E-1,-3.8286117E-1,-1.4915434E-2,-5.1366013E-1,-2.6858187E-1,-5.771293E-1,-2.4637659E-1,-7.951013E-1,-6.194597E-1,5.821567E-3,-2.2072107E-2,1.1677759E-2,-4.8884666E-3,-1.8320208E-2,-2.9551864E-2,-2.6566256E-2,-1.0356523E-2,-3.1388614E-2,-1.7835071E-2,-1.8020084E-2,1.2145496E-3,-3.508724E-2,-4.2504657E-2,-3.1870615E-2,1.9714491E-2],"categories":[],"categories_nodes":[],"categories_segments":[],"categories_sizes":[],"default_left":[0,0,0,1,0,1,1,0,0,0,0,1,0,0,1,0,0,0,0,0,0,0,0,0,0,0,0,0,0,0,0],"id":43,"left_children":[1,3,5,7,9,11,13,15,17,19,21,23,25,27,29,-1,-1,-1,-1,-1,-1,-1,-1,-1,-1,-1,-1,-1,-1,-1,-1],"loss_changes":[5.888164E2,2.2815796E2,1.1242749E2,9.66913E1,1.3030298E2,1.0001538E2,2.1958618E1,2.6778336E1,6.737229E1,4.4846558E1,7.766681E1,7.3749756E1,3.2847855E1,1.2698364E1,1.8745361E1,0E0,0E0,0E0,0E0,0E0,0E0,0E0,0E0,0E0,0E0,0E0,0E0,0E0,0E0,0E0,0E0],"parents":[2147483647,0,0,1,1,2,2,3,3,4,4,5,5,6,6,7,7,8,8,9,9,10,10,11,11,12,12,13,13,14,14],"right_children":[2,4,6,8,10,12,14,16,18,20,22,24,26,28,30,-1,-1,-1,-1,-1,-1,-1,-1,-1,-1,-1,-1,-1,-1,-1,-1],"split_conditions":[5.5041516E-1,2.5894228E-1,6.892935E-1,-5.33E3,-8.955714E2,4.4476743E3,3.9E-1,5.9352434E4,1.1162367E5,2E0,2E0,1.8181819E-1,-3.1E1,2.9E1,3.18E2,5.821567E-3,-2.2072107E-2,1.1677759E-2,-4.8884666E-3,-1.8320208E-2,-2.9551864E-2,-2.6566256E-2,-1.0356523E-2,-3.1388614E-2,-1.7835071E-2,-1.8020084E-2,1.2145496E-3,-3.508724E-2,-4.2504657E-2,-3.1870615E-2,1.9714491E-2],"split_indices":[39,39,39,19,53,161,63,132,132,1,6,129,140,130,113,0,0,0,0,0,0,0,0,0,0,0,0,0,0,0,0],"split_type":[0,0,0,0,0,0,0,0,0,0,0,0,0,0,0,0,0,0,0,0,0,0,0,0,0,0,0,0,0,0,0],"sum_hessian":[2.424576E4,1.2953283E4,1.1292478E4,4.1832656E3,8.770018E3,7.6886416E3,3.6038357E3,9.1277124E2,3.2704944E3,3.953901E3,4.816116E3,6.6256094E3,1.0630321E3,2.5886438E3,1.01519183E3,9.574423E1,8.17027E2,8.173935E2,2.4531008E3,1.3639365E3,2.5899644E3,9.1145044E2,3.9046658E3,5.3862744E3,1.239335E3,7.4771014E2,3.1532202E2,9.6469604E2,1.6239478E3,9.9789136E2,1.7300499E1],"tree_param":{"num_deleted":"0","num_feature":"170","num_nodes":"31","size_leaf_vector":"0"}},{"base_weights":[-4.1611364E-1,-2.493923E-1,-5.5936384E-1,-4.442657E-1,-1.5563823E-1,-1.9247043E-1,-5.908496E-1,-4.8882177E-1,-8.772265E-2,-2.0637704E-1,2.2894299E-1,4.7547457E-1,-2.3952222E-1,-5.272534E-1,-7.461218E-1,3.4318153E-2,-2.5005234E-2,5.2624196E-2,-7.165864E-3,-1.3035386E-2,6.4326995E-3,1.0232739E-3,2.917931E-2,-2.8989866E-2,3.4225803E-2,-2.1998173E-2,-2.0472994E-3,-2.8428344E-2,-1.34625975E-2,-4.0605903E-2,-3.237314E-2],"categories":[],"categories_nodes":[],"categories_segments":[],"categories_sizes":[],"default_left":[0,1,0,1,1,0,0,0,0,1,0,0,1,1,1,0,0,0,0,0,0,0,0,0,0,0,0,0,0,0,0],"id":44,"left_children":[1,3,5,7,9,11,13,15,17,19,21,23,25,27,29,-1,-1,-1,-1,-1,-1,-1,-1,-1,-1,-1,-1,-1,-1,-1,-1],"loss_changes":[5.688804E2,2.0113116E2,1.4791235E2,5.6775818E1,1.4516449E2,3.198912E1,1.1613574E2,4.249652E1,2.541324E1,1.1963461E2,6.411058E1,1.5194089E1,3.772114E1,8.9117676E1,2.1784668E1,0E0,0E0,0E0,0E0,0E0,0E0,0E0,0E0,0E0,0E0,0E0,0E0,0E0,0E0,0E0,0E0],"parents":[2147483647,0,0,1,1,2,2,3,3,4,4,5,5,6,6,7,7,8,8,9,9,10,10,11,11,12,12,13,13,14,14],"right_children":[2,4,6,8,10,12,14,16,18,20,22,24,26,28,30,-1,-1,-1,-1,-1,-1,-1,-1,-1,-1,-1,-1,-1,-1,-1,-1],"split_conditions":[5.061354E-1,-3.051E3,2.841812E-1,5.860903E3,2.3076923E-1,9.272458E-2,6.865942E-1,1.6375361E-1,1.113876E4,4.4634074E4,-1.1E3,2.25E5,1.6129032E-2,4.5E3,3.7037037E-2,3.4318153E-2,-2.5005234E-2,5.2624196E-2,-7.165864E-3,-1.3035386E-2,6.4326995E-3,1.0232739E-3,2.917931E-2,-2.8989866E-2,3.4225803E-2,-2.1998173E-2,-2.0472994E-3,-2.8428344E-2,-1.34625975E-2,-4.0605903E-2,-3.237314E-2],"split_indices":[39,19,38,161,127,38,39,38,134,156,111,14,127,161,127,0,0,0,0,0,0,0,0,0,0,0,0,0,0,0,0],"split_type":[0,0,0,0,0,0,0,0,0,0,0,0,0,0,0,0,0,0,0,0,0,0,0,0,0,0,0,0,0,0,0],"sum_hessian":[2.3824457E4,1.1011498E4,1.281296E4,3.5756204E3,7.4358774E3,1.0132302E3,1.17997295E4,3.178093E3,3.9752753E2,6.5695967E3,8.662807E2,6.6078445E1,9.471518E2,8.374221E3,3.4255083E3,2.9653595E1,3.1484392E3,1.7648003E1,3.7987952E2,5.6530806E3,9.1651624E2,5.46234E2,3.2004672E2,1.0632157E1,5.544629E1,4.7075745E2,4.7639432E2,7.217316E3,1.1569054E3,2.048181E3,1.3773275E3],"tree_param":{"num_deleted":"0","num_feature":"170","num_nodes":"31","size_leaf_vector":"0"}},{"base_weights":[-4.0288872E-1,-8.817499E-2,-4.776411E-1,1.0514368E-1,